svm_type c_svc
kernel_type rbf
gamma 0.050000000000000003
nr_class 2
total_sv 16837
rho -1.8936728993071703
label 1 0
nr_sv 7448 9389
SV
1 10:1 11:1 12:1 13:1 14:1 
1 10:1 11:1 12:1 13:1 14:1 
1 6:1 20:1 21:1 22:1 23:1 
1 7:1 10:1 11:1 24:1 25:1 
1 7:1 27:1 28:1 29:1 30:1 
1 7:1 28:1 29:1 30:1 
1 7:1 11:1 12:1 13:1 
1 10:1 11:1 12:1 13:1 14:1 
1 10:1 11:1 12:1 13:1 14:1 
1 10:1 11:1 12:1 13:1 14:1 
1 25:1 28:1 32:1 33:1 34:1 
1 25:1 28:1 33:1 34:1 35:1 
1 28:1 36:1 37:1 38:1 39:1 
1 17:1 40:1 41:1 42:1 
1 7:1 45:1 46:1 47:1 
1 45:1 46:1 47:1 48:1 
0.2972585916555272 46:1 48:1 49:1 50:1 51:1 
1 7:1 54:1 55:1 56:1 57:1 
1 17:1 65:1 66:1 67:1 
1 11:1 12:1 68:1 69:1 70:1 
1 6:1 7:1 18:1 71:1 
1 11:1 12:1 72:1 73:1 74:1 
1 1:1 10:1 25:1 76:1 77:1 
1 10:1 78:1 79:1 80:1 81:1 
1 10:1 79:1 80:1 81:1 82:1 
1 1:1 32:1 83:1 84:1 85:1 
0.2185280821619322 6:1 49:1 88:1 89:1 90:1 
1 7:1 10:1 25:1 91:1 92:1 
1 17:1 32:1 50:1 96:1 97:1 
1 17:1 32:1 50:1 97:1 98:1 
1 28:1 33:1 34:1 38:1 77:1 
1 28:1 33:1 34:1 38:1 100:1 
1 17:1 105:1 106:1 107:1 
1 7:1 19:1 108:1 109:1 110:1 
1 7:1 19:1 109:1 110:1 
1 7:1 10:1 117:1 118:1 119:1 
1 10:1 77:1 117:1 118:1 119:1 
1 58:1 114:1 120:1 121:1 122:1 
1 58:1 81:1 82:1 114:1 122:1 
1 32:1 38:1 124:1 125:1 126:1 
1 25:1 58:1 127:1 128:1 129:1 
1 58:1 127:1 128:1 129:1 130:1 
1 131:1 132:1 133:1 134:1 135:1 
1 1:1 94:1 136:1 137:1 138:1 
1 1:1 2:1 139:1 140:1 141:1 
1 1:1 2:1 141:1 142:1 143:1 
1 6:1 33:1 52:1 102:1 103:1 
1 1:1 145:1 146:1 147:1 148:1 
1 10:1 11:1 12:1 13:1 14:1 
1 112:1 149:1 150:1 151:1 152:1 
1 7:1 112:1 151:1 152:1 
1 15:1 32:1 58:1 86:1 153:1 
1 15:1 32:1 58:1 153:1 154:1 
0.83590264508524015 1:1 10:1 156:1 157:1 158:1 
1 7:1 10:1 156:1 
1 6:1 7:1 162:1 163:1 164:1 
1 1:1 77:1 156:1 165:1 166:1 
1 1:1 77:1 111:1 156:1 166:1 
1 10:1 11:1 12:1 13:1 14:1 
1 56:1 134:1 135:1 167:1 168:1 
1 7:1 169:1 170:1 171:1 172:1 
1 161:1 169:1 170:1 171:1 172:1 
1 1:1 6:1 161:1 173:1 174:1 
1 1:1 6:1 138:1 161:1 174:1 
1 7:1 10:1 23:1 175:1 176:1 
1 10:1 161:1 171:1 176:1 177:1 
0.010702040643697102 1:1 6:1 102:1 178:1 179:1 
0.044387034546939499 1:1 6:1 102:1 179:1 180:1 
1 6:1 10:1 180:1 181:1 182:1 
0.45086881241031795 7:1 25:1 58:1 183:1 184:1 
1 1:1 161:1 185:1 186:1 187:1 
1 1:1 161:1 186:1 187:1 188:1 
1 25:1 28:1 167:1 189:1 190:1 
1 25:1 28:1 167:1 185:1 190:1 
1 7:1 11:1 72:1 191:1 192:1 
1 11:1 72:1 74:1 191:1 192:1 
1 7:1 94:1 193:1 194:1 195:1 
1 7:1 10:1 11:1 12:1 25:1 
1 10:1 11:1 12:1 25:1 196:1 
0.39638802014791907 1:1 21:1 32:1 196:1 197:1 
0.13750104852748879 1:1 6:1 199:1 200:1 201:1 
0.91487741913246534 1:1 6:1 15:1 197:1 198:1 
1 1:1 6:1 15:1 197:1 202:1 
1 6:1 38:1 203:1 204:1 205:1 
1 6:1 18:1 38:1 204:1 205:1 
1 1:1 6:1 129:1 130:1 197:1 
1 1:1 6:1 82:1 130:1 197:1 
1 11:1 12:1 13:1 14:1 19:1 
1 1:1 10:1 77:1 206:1 207:1 
1 1:1 10:1 77:1 111:1 207:1 
1 77:1 94:1 152:1 153:1 208:1 
1 94:1 138:1 152:1 153:1 208:1 
1 7:1 58:1 153:1 
1 7:1 28:1 210:1 211:1 212:1 
1 32:1 213:1 214:1 215:1 216:1 
1 10:1 147:1 217:1 218:1 
1 7:1 58:1 219:1 220:1 221:1 
1 7:1 75:1 212:1 222:1 
1 198:1 212:1 223:1 224:1 225:1 
1 58:1 81:1 226:1 227:1 228:1 
1 7:1 81:1 131:1 132:1 226:1 
1 2:1 6:1 212:1 229:1 230:1 
1 1:1 72:1 231:1 232:1 233:1 
1 1:1 25:1 77:1 234:1 235:1 
1 1:1 10:1 77:1 111:1 207:1 
1 10:1 79:1 81:1 162:1 236:1 
1 10:1 79:1 81:1 82:1 236:1 
1 10:1 32:1 78:1 187:1 237:1 
1 238:1 239:1 240:1 241:1 242:1 
1 10:1 32:1 78:1 187:1 243:1 
1 10:1 32:1 78:1 187:1 243:1 
1 7:1 32:1 78:1 79:1 236:1 
0.84094341883366441 7:1 78:1 79:1 236:1 
0.82055221613878004 11:1 12:1 127:1 247:1 248:1 
1 1:1 30:1 86:1 249:1 250:1 
1 1:1 86:1 216:1 249:1 250:1 
0.71814949062958289 131:1 132:1 133:1 134:1 135:1 
1 1:1 252:1 254:1 255:1 256:1 
1 80:1 121:1 123:1 257:1 258:1 
1 7:1 26:1 183:1 259:1 260:1 
1 6:1 261:1 262:1 263:1 264:1 
1 7:1 110:1 265:1 
1 26:1 58:1 183:1 266:1 267:1 
1 7:1 272:1 273:1 274:1 275:1 
1 7:1 273:1 274:1 275:1 
1 11:1 12:1 72:1 73:1 74:1 
0.64381556304122922 11:1 12:1 276:1 277:1 278:1 
0.33240674303994733 1:1 12:1 25:1 278:1 279:1 
1 11:1 12:1 69:1 144:1 280:1 
1 80:1 81:1 82:1 281:1 282:1 
1 10:1 78:1 80:1 281:1 282:1 
1 80:1 81:1 82:1 281:1 282:1 
1 1:1 7:1 114:1 285:1 
1 6:1 33:1 34:1 286:1 287:1 
1 5:1 7:1 165:1 289:1 
1 30:1 291:1 292:1 293:1 294:1 
1 295:1 296:1 297:1 298:1 299:1 
1 296:1 297:1 298:1 299:1 300:1 
1 1:1 25:1 156:1 301:1 302:1 
1 1:1 32:1 300:1 303:1 304:1 
1 1:1 21:1 300:1 303:1 304:1 
1 7:1 10:1 11:1 12:1 69:1 
1 49:1 305:1 306:1 307:1 308:1 
1 11:1 12:1 19:1 25:1 69:1 
1 7:1 10:1 11:1 12:1 69:1 
1 7:1 309:1 310:1 311:1 
1 127:1 312:1 313:1 314:1 315:1 
1 25:1 127:1 313:1 314:1 315:1 
1 316:1 317:1 318:1 319:1 320:1 
1 38:1 317:1 318:1 319:1 320:1 
0.1465618114230407 1:1 85:1 290:1 325:1 326:1 
1 7:1 50:1 116:1 327:1 328:1 
0.7135563632803118 6:1 52:1 77:1 329:1 330:1 
1 7:1 58:1 181:1 255:1 332:1 
1 333:1 334:1 335:1 336:1 337:1 
1 15:1 50:1 231:1 335:1 338:1 
1 19:1 339:1 340:1 341:1 342:1 
1 1:1 32:1 145:1 197:1 345:1 
1 1:1 32:1 145:1 197:1 346:1 
1 72:1 111:1 156:1 161:1 347:1 
1 7:1 10:1 156:1 348:1 349:1 
1 10:1 25:1 156:1 348:1 349:1 
1 1:1 56:1 72:1 76:1 206:1 
1 6:1 51:1 354:1 355:1 356:1 
1 3:1 230:1 357:1 358:1 359:1 
1 6:1 17:1 359:1 360:1 361:1 
1 7:1 280:1 362:1 363:1 
1 25:1 72:1 364:1 365:1 366:1 
1 25:1 93:1 316:1 367:1 368:1 
1 1:1 56:1 72:1 234:1 369:1 
1 1:1 56:1 72:1 206:1 234:1 
1 10:1 330:1 336:1 364:1 370:1 
1 10:1 330:1 364:1 370:1 371:1 
1 30:1 301:1 372:1 373:1 374:1 
1 30:1 372:1 373:1 374:1 375:1 
1 104:1 376:1 377:1 378:1 379:1 
1 51:1 127:1 132:1 382:1 383:1 
1 7:1 54:1 187:1 230:1 
0.5228032940019347 72:1 132:1 206:1 382:1 384:1 
0.89374089502815679 26:1 253:1 282:1 385:1 386:1 
1 330:1 391:1 392:1 393:1 394:1 
1 330:1 392:1 393:1 394:1 395:1 
1 1:1 32:1 165:1 396:1 397:1 
1 1:1 32:1 165:1 397:1 398:1 
1 2:1 10:1 121:1 134:1 370:1 
1 2:1 121:1 134:1 370:1 399:1 
1 1:1 22:1 32:1 402:1 403:1 
1 1:1 32:1 402:1 403:1 404:1 
1 72:1 134:1 151:1 399:1 405:1 
1 56:1 72:1 281:1 282:1 406:1 
1 2:1 7:1 147:1 407:1 408:1 
1 2:1 147:1 407:1 408:1 
1 2:1 25:1 211:1 409:1 410:1 
1 14:1 25:1 211:1 409:1 410:1 
1 79:1 131:1 132:1 411:1 412:1 
1 79:1 82:1 132:1 411:1 412:1 
1 1:1 6:1 414:1 415:1 416:1 
1 1:1 6:1 415:1 416:1 417:1 
1 1:1 30:1 145:1 420:1 421:1 
1 1:1 6:1 103:1 422:1 423:1 
1 7:1 72:1 336:1 424:1 425:1 
1 25:1 72:1 336:1 424:1 425:1 
1 7:1 38:1 72:1 426:1 
1 10:1 336:1 364:1 365:1 427:1 
1 6:1 32:1 199:1 365:1 428:1 
1 6:1 199:1 365:1 428:1 429:1 
1 7:1 72:1 118:1 430:1 
1 7:1 72:1 118:1 430:1 
1 7:1 10:1 19:1 156:1 431:1 
1 167:1 432:1 433:1 434:1 435:1 
1 38:1 436:1 437:1 438:1 439:1 
1 38:1 437:1 438:1 439:1 440:1 
1 23:1 121:1 175:1 441:1 442:1 
1 7:1 25:1 367:1 443:1 
1 1:1 10:1 77:1 206:1 207:1 
1 1:1 10:1 77:1 111:1 207:1 
1 25:1 110:1 444:1 445:1 446:1 
1 25:1 110:1 445:1 446:1 447:1 
1 136:1 402:1 447:1 448:1 449:1 
1 7:1 402:1 448:1 449:1 
1 12:1 25:1 444:1 450:1 
1 12:1 93:1 446:1 450:1 
1 7:1 27:1 58:1 451:1 452:1 
1 2:1 6:1 18:1 21:1 453:1 
1 5:1 10:1 379:1 454:1 455:1 
1 38:1 456:1 457:1 458:1 459:1 
1 7:1 460:1 461:1 462:1 
1 7:1 79:1 
1 25:1 208:1 463:1 464:1 465:1 
1 7:1 127:1 467:1 468:1 
1 167:1 433:1 434:1 469:1 470:1 
1 1:1 25:1 136:1 212:1 473:1 
1 7:1 10:1 19:1 118:1 467:1 
1 7:1 10:1 118:1 467:1 
0.62879511488291828 1:1 12:1 474:1 475:1 476:1 
1 1:1 7:1 86:1 206:1 477:1 
1 10:1 342:1 478:1 479:1 480:1 
1 10:1 25:1 342:1 479:1 480:1 
1 7:1 458:1 481:1 482:1 
1 25:1 110:1 446:1 450:1 483:1 
1 32:1 59:1 484:1 485:1 486:1 
1 6:1 59:1 103:1 485:1 487:1 
1 17:1 282:1 488:1 489:1 490:1 
1 17:1 38:1 282:1 490:1 491:1 
1 7:1 147:1 288:1 493:1 
0.76473919440582139 31:1 147:1 288:1 377:1 493:1 
1 11:1 12:1 19:1 69:1 494:1 
1 7:1 10:1 11:1 12:1 69:1 
1 38:1 289:1 495:1 496:1 497:1 
1 38:1 289:1 496:1 497:1 498:1 
1 7:1 10:1 11:1 12:1 69:1 
1 10:1 11:1 12:1 13:1 14:1 
0.3029684675259956 1:1 6:1 286:1 504:1 505:1 
0.43359521458268246 7:1 11:1 12:1 72:1 73:1 
1 11:1 12:1 72:1 73:1 74:1 
1 7:1 11:1 12:1 19:1 25:1 
1 11:1 12:1 13:1 19:1 25:1 
0.33323018786891556 10:1 11:1 12:1 13:1 506:1 
1 7:1 91:1 270:1 507:1 508:1 
1 25:1 91:1 270:1 507:1 508:1 
1 11:1 12:1 13:1 19:1 161:1 
0.16193401732212123 11:1 12:1 13:1 19:1 509:1 
1 10:1 11:1 12:1 13:1 25:1 
1 86:1 94:1 288:1 381:1 510:1 
1 7:1 496:1 511:1 512:1 
0.34418457825375065 6:1 17:1 32:1 381:1 510:1 
1 7:1 11:1 12:1 19:1 129:1 
1 11:1 12:1 19:1 129:1 513:1 
1 1:1 7:1 514:1 515:1 
1 10:1 11:1 12:1 13:1 14:1 
1 6:1 152:1 206:1 516:1 517:1 
1 6:1 152:1 206:1 517:1 518:1 
0.087346767399364963 11:1 12:1 69:1 72:1 519:1 
1 11:1 12:1 13:1 19:1 206:1 
1 11:1 12:1 13:1 14:1 19:1 
1 10:1 11:1 12:1 13:1 14:1 
0.34930714872039437 1:1 21:1 57:1 520:1 521:1 
1 1:1 6:1 57:1 521:1 522:1 
1 6:1 18:1 99:1 500:1 521:1 
1 11:1 12:1 13:1 19:1 25:1 
1 1:1 7:1 32:1 523:1 
1 6:1 471:1 524:1 525:1 526:1 
1 6:1 276:1 471:1 525:1 526:1 
1 7:1 32:1 527:1 528:1 529:1 
1 7:1 32:1 528:1 529:1 
1 7:1 529:1 530:1 
1 3:1 439:1 531:1 532:1 533:1 
1 3:1 6:1 18:1 532:1 533:1 
0.95097151255864154 1:1 77:1 381:1 422:1 534:1 
1 1:1 32:1 161:1 309:1 535:1 
1 1:1 161:1 309:1 535:1 536:1 
1 7:1 154:1 381:1 535:1 
0.71270636156264944 134:1 154:1 381:1 535:1 539:1 
1 26:1 183:1 288:1 542:1 543:1 
1 6:1 18:1 544:1 545:1 546:1 
1 7:1 72:1 111:1 156:1 547:1 
1 72:1 111:1 156:1 161:1 547:1 
1 10:1 26:1 336:1 548:1 549:1 
1 1:1 10:1 550:1 551:1 552:1 
1 38:1 153:1 553:1 554:1 555:1 
1 7:1 99:1 153:1 161:1 422:1 
1 11:1 12:1 13:1 19:1 206:1 
0.54998544076617206 7:1 10:1 330:1 548:1 556:1 
1 10:1 330:1 548:1 556:1 557:1 
1 19:1 32:1 220:1 365:1 558:1 
0.49337874574805302 7:1 19:1 220:1 365:1 558:1 
1 7:1 10:1 150:1 336:1 559:1 
1 10:1 25:1 150:1 336:1 559:1 
1 1:1 25:1 36:1 57:1 560:1 
1 1:1 36:1 57:1 253:1 434:1 
1 7:1 10:1 150:1 336:1 561:1 
1 10:1 25:1 150:1 336:1 561:1 
1 10:1 150:1 562:1 563:1 564:1 
1 1:1 10:1 36:1 78:1 153:1 
1 1:1 36:1 56:1 153:1 565:1 
1 10:1 187:1 566:1 567:1 568:1 
1 1:1 13:1 25:1 32:1 57:1 
1 7:1 10:1 336:1 365:1 558:1 
1 10:1 13:1 336:1 365:1 558:1 
1 7:1 32:1 220:1 558:1 
1 7:1 10:1 569:1 570:1 571:1 
1 10:1 569:1 570:1 571:1 572:1 
1 7:1 161:1 295:1 365:1 573:1 
1 161:1 295:1 365:1 573:1 574:1 
1 7:1 10:1 355:1 575:1 577:1 
1 355:1 571:1 575:1 577:1 578:1 
1 25:1 253:1 580:1 581:1 582:1 
1 25:1 93:1 580:1 581:1 582:1 
1 57:1 72:1 78:1 253:1 583:1 
1 57:1 77:1 253:1 368:1 583:1 
1 1:1 10:1 187:1 584:1 585:1 
1 1:1 7:1 187:1 342:1 585:1 
1 3:1 38:1 94:1 586:1 587:1 
1 3:1 38:1 94:1 587:1 588:1 
1 7:1 336:1 559:1 589:1 590:1 
1 25:1 336:1 559:1 589:1 590:1 
1 317:1 342:1 562:1 590:1 591:1 
1 7:1 317:1 342:1 562:1 590:1 
1 7:1 10:1 549:1 592:1 593:1 
1 10:1 549:1 592:1 593:1 594:1 
1 7:1 10:1 150:1 562:1 563:1 
1 10:1 56:1 150:1 562:1 563:1 
1 7:1 370:1 595:1 596:1 597:1 
1 7:1 595:1 596:1 597:1 
1 7:1 161:1 598:1 599:1 
1 36:1 57:1 253:1 601:1 602:1 
1 36:1 57:1 77:1 253:1 602:1 
1 7:1 576:1 589:1 603:1 604:1 
1 576:1 589:1 603:1 604:1 605:1 
1 25:1 36:1 57:1 129:1 317:1 
1 13:1 36:1 57:1 129:1 317:1 
1 7:1 336:1 589:1 590:1 606:1 
1 77:1 336:1 589:1 590:1 606:1 
1 164:1 317:1 342:1 562:1 590:1 
1 25:1 317:1 342:1 562:1 590:1 
1 7:1 72:1 77:1 563:1 607:1 
1 72:1 77:1 563:1 607:1 608:1 
1 10:1 427:1 471:1 559:1 609:1 
1 10:1 342:1 427:1 471:1 559:1 
1 7:1 72:1 77:1 563:1 607:1 
1 72:1 77:1 336:1 563:1 607:1 
1 118:1 317:1 342:1 610:1 611:1 
1 72:1 78:1 253:1 612:1 613:1 
1 72:1 253:1 434:1 612:1 613:1 
1 1:1 36:1 57:1 253:1 434:1 
1 32:1 36:1 78:1 253:1 434:1 
1 72:1 78:1 253:1 612:1 613:1 
1 72:1 253:1 434:1 612:1 613:1 
1 1:1 36:1 57:1 77:1 253:1 
1 10:1 25:1 72:1 342:1 614:1 
1 7:1 56:1 72:1 611:1 614:1 
1 7:1 30:1 615:1 616:1 
1 25:1 62:1 75:1 617:1 618:1 
1 62:1 75:1 617:1 618:1 619:1 
1 62:1 620:1 621:1 622:1 623:1 
1 7:1 62:1 624:1 
1 7:1 72:1 208:1 625:1 626:1 
1 32:1 72:1 208:1 625:1 626:1 
1 7:1 161:1 310:1 627:1 
0.69378378665133622 31:1 161:1 310:1 627:1 628:1 
1 7:1 25:1 629:1 
1 161:1 613:1 628:1 630:1 631:1 
1 7:1 72:1 135:1 576:1 632:1 
1 72:1 135:1 571:1 576:1 632:1 
0.28332316294442306 23:1 245:1 246:1 633:1 634:1 
1 22:1 32:1 341:1 635:1 636:1 
1 7:1 22:1 635:1 636:1 
1 58:1 63:1 175:1 637:1 638:1 
1 32:1 58:1 63:1 638:1 639:1 
1 7:1 161:1 640:1 641:1 
1 31:1 161:1 640:1 641:1 642:1 
1 7:1 10:1 358:1 643:1 644:1 
1 10:1 25:1 645:1 646:1 647:1 
1 7:1 49:1 206:1 460:1 648:1 
1 19:1 112:1 212:1 649:1 650:1 
1 7:1 10:1 448:1 651:1 652:1 
1 10:1 336:1 448:1 651:1 652:1 
1 345:1 653:1 654:1 655:1 656:1 
1 21:1 212:1 653:1 658:1 659:1 
1 81:1 110:1 167:1 661:1 662:1 
0.018282398599542917 7:1 10:1 43:1 110:1 663:1 
1 10:1 43:1 110:1 663:1 664:1 
1 43:1 110:1 663:1 664:1 665:1 
1 10:1 62:1 666:1 667:1 668:1 
1 34:1 161:1 328:1 669:1 670:1 
1 34:1 161:1 328:1 670:1 671:1 
1 1:1 32:1 36:1 57:1 78:1 
0.79017124432819097 1:1 36:1 57:1 78:1 253:1 
1 1:1 36:1 57:1 77:1 253:1 
1 1:1 7:1 672:1 673:1 
1 7:1 10:1 675:1 676:1 677:1 
1 10:1 336:1 675:1 676:1 677:1 
1 175:1 402:1 589:1 678:1 679:1 
1 7:1 402:1 679:1 680:1 
1 2:1 175:1 330:1 345:1 681:1 
1 2:1 175:1 330:1 681:1 682:1 
1 7:1 683:1 684:1 685:1 686:1 
1 635:1 687:1 688:1 689:1 
1 7:1 549:1 690:1 691:1 692:1 
1 1:1 57:1 78:1 276:1 317:1 
1 1:1 57:1 276:1 317:1 693:1 
1 25:1 36:1 112:1 151:1 694:1 
1 7:1 36:1 72:1 695:1 696:1 
1 7:1 36:1 72:1 696:1 
0.053188685670037025 72:1 330:1 342:1 697:1 698:1 
1 25:1 72:1 330:1 342:1 698:1 
1 7:1 72:1 330:1 699:1 
1 363:1 540:1 700:1 701:1 702:1 
1 635:1 703:1 704:1 705:1 706:1 
1 1:1 7:1 26:1 38:1 707:1 
1 10:1 549:1 690:1 708:1 709:1 
1 6:1 7:1 243:1 712:1 
1 7:1 243:1 713:1 714:1 
1 7:1 243:1 703:1 715:1 
1 7:1 30:1 716:1 717:1 718:1 
1 30:1 716:1 717:1 718:1 719:1 
1 25:1 243:1 720:1 721:1 722:1 
1 7:1 161:1 243:1 723:1 
1 7:1 543:1 724:1 725:1 
1 25:1 543:1 724:1 725:1 726:1 
1 1:1 672:1 727:1 728:1 729:1 
1 1:1 672:1 729:1 730:1 731:1 
1 7:1 56:1 72:1 342:1 732:1 
1 25:1 36:1 733:1 734:1 735:1 
1 25:1 36:1 734:1 735:1 736:1 
1 589:1 737:1 738:1 739:1 740:1 
1 7:1 127:1 559:1 590:1 741:1 
1 127:1 434:1 559:1 590:1 741:1 
1 651:1 742:1 743:1 744:1 745:1 
1 742:1 743:1 744:1 745:1 746:1 
1 7:1 747:1 748:1 749:1 
1 551:1 747:1 748:1 749:1 750:1 
1 551:1 748:1 749:1 750:1 751:1 
1 1:1 10:1 353:1 752:1 753:1 
1 1:1 10:1 353:1 753:1 754:1 
1 7:1 72:1 434:1 563:1 755:1 
1 72:1 336:1 434:1 563:1 755:1 
1 72:1 118:1 562:1 611:1 756:1 
1 58:1 757:1 758:1 759:1 760:1 
1 58:1 759:1 760:1 761:1 762:1 
1 7:1 538:1 763:1 764:1 
1 1:1 32:1 290:1 765:1 766:1 
1 1:1 36:1 57:1 253:1 434:1 
1 7:1 25:1 68:1 565:1 767:1 
1 32:1 220:1 253:1 768:1 769:1 
1 25:1 220:1 253:1 768:1 769:1 
1 1:1 25:1 245:1 246:1 770:1 
0.67278035403548619 1:1 7:1 770:1 771:1 772:1 
1 7:1 773:1 774:1 775:1 
1 6:1 82:1 199:1 471:1 776:1 
1 7:1 26:1 68:1 336:1 777:1 
1 25:1 72:1 245:1 246:1 777:1 
1 7:1 49:1 778:1 779:1 
1 7:1 546:1 780:1 
0.77745960652763935 1:1 58:1 81:1 781:1 782:1 
1 161:1 206:1 783:1 784:1 785:1 
1 7:1 245:1 246:1 569:1 
1 32:1 94:1 138:1 786:1 787:1 
1 94:1 138:1 165:1 786:1 787:1 
1 1:1 36:1 57:1 253:1 434:1 
1 7:1 127:1 559:1 563:1 590:1 
1 127:1 434:1 559:1 563:1 590:1 
1 7:1 10:1 559:1 788:1 789:1 
1 56:1 559:1 788:1 789:1 790:1 
1 25:1 342:1 371:1 791:1 
0.089873088435323156 26:1 336:1 569:1 576:1 579:1 
1 25:1 72:1 245:1 792:1 793:1 
1 72:1 245:1 246:1 792:1 793:1 
1 336:1 634:1 792:1 794:1 795:1 
1 26:1 336:1 634:1 792:1 795:1 
1 7:1 72:1 471:1 537:1 676:1 
1 72:1 434:1 471:1 537:1 676:1 
1 3:1 796:1 797:1 798:1 799:1 
1 3:1 797:1 798:1 799:1 800:1 
1 3:1 161:1 798:1 799:1 800:1 
1 161:1 798:1 799:1 800:1 801:1 
1 10:1 471:1 559:1 802:1 803:1 
1 10:1 342:1 471:1 559:1 803:1 
1 7:1 336:1 804:1 805:1 806:1 
1 336:1 804:1 805:1 806:1 807:1 
1 1:1 10:1 25:1 353:1 399:1 
0.97158190933325317 1:1 7:1 353:1 753:1 
1 7:1 25:1 72:1 399:1 808:1 
1 7:1 25:1 72:1 399:1 808:1 
1 1:1 10:1 78:1 353:1 809:1 
1 1:1 7:1 353:1 809:1 810:1 
1 1:1 10:1 353:1 811:1 
1 1:1 7:1 353:1 811:1 
1 6:1 12:1 32:1 293:1 812:1 
1 25:1 99:1 206:1 399:1 809:1 
1 7:1 72:1 353:1 813:1 814:1 
1 7:1 72:1 353:1 814:1 
1 7:1 72:1 353:1 814:1 815:1 
1 72:1 353:1 814:1 815:1 816:1 
1 7:1 10:1 150:1 562:1 563:1 
1 10:1 56:1 150:1 562:1 563:1 
1 7:1 10:1 150:1 562:1 563:1 
1 10:1 56:1 150:1 562:1 563:1 
1 10:1 23:1 25:1 175:1 634:1 
1 7:1 281:1 365:1 817:1 
1 19:1 23:1 175:1 634:1 818:1 
1 51:1 286:1 365:1 819:1 820:1 
1 7:1 10:1 150:1 562:1 563:1 
1 10:1 56:1 150:1 562:1 563:1 
1 7:1 10:1 32:1 310:1 488:1 
1 72:1 342:1 562:1 611:1 822:1 
1 25:1 72:1 342:1 562:1 611:1 
1 56:1 565:1 581:1 823:1 824:1 
1 1:1 36:1 56:1 57:1 565:1 
1 1:1 36:1 56:1 57:1 565:1 
1 1:1 316:1 317:1 825:1 826:1 
0.55854564372832738 1:1 72:1 317:1 825:1 826:1 
1 7:1 10:1 150:1 562:1 563:1 
1 10:1 56:1 150:1 562:1 563:1 
1 32:1 78:1 163:1 827:1 
1 10:1 163:1 828:1 829:1 
1 1:1 10:1 389:1 572:1 830:1 
1 10:1 150:1 342:1 562:1 563:1 
0.40533302904068041 1:1 32:1 163:1 831:1 832:1 
1 10:1 342:1 364:1 371:1 
1 25:1 342:1 364:1 371:1 
0.95945571469107693 7:1 58:1 253:1 775:1 833:1 
1 1:1 7:1 589:1 834:1 
1 1:1 7:1 589:1 834:1 
1 161:1 342:1 562:1 732:1 835:1 
1 56:1 72:1 562:1 563:1 732:1 
1 7:1 127:1 342:1 788:1 836:1 
1 342:1 562:1 732:1 835:1 837:1 
1 56:1 72:1 562:1 676:1 732:1 
1 244:1 301:1 364:1 589:1 838:1 
1 38:1 147:1 161:1 839:1 840:1 
1 7:1 839:1 841:1 842:1 843:1 
1 7:1 72:1 118:1 562:1 611:1 
0.87538457403691439 72:1 118:1 342:1 562:1 611:1 
1 81:1 316:1 317:1 844:1 845:1 
1 81:1 82:1 317:1 844:1 845:1 
1 7:1 342:1 559:1 589:1 590:1 
1 25:1 342:1 559:1 589:1 590:1 
1 7:1 578:1 846:1 847:1 848:1 
1 571:1 578:1 846:1 847:1 848:1 
1 7:1 72:1 118:1 562:1 611:1 
1 72:1 77:1 118:1 562:1 611:1 
1 7:1 72:1 118:1 562:1 611:1 
1 72:1 118:1 342:1 562:1 611:1 
1 3:1 25:1 253:1 368:1 849:1 
1 3:1 25:1 93:1 368:1 849:1 
1 10:1 157:1 850:1 851:1 852:1 
1 32:1 212:1 850:1 851:1 852:1 
1 32:1 78:1 115:1 853:1 854:1 
1 32:1 115:1 551:1 853:1 854:1 
1 7:1 17:1 343:1 855:1 
1 7:1 10:1 150:1 562:1 563:1 
1 10:1 56:1 150:1 562:1 563:1 
1 32:1 138:1 844:1 857:1 858:1 
1 75:1 844:1 858:1 859:1 860:1 
1 7:1 72:1 118:1 562:1 611:1 
0.99049092816886153 72:1 118:1 342:1 562:1 611:1 
1 10:1 161:1 861:1 862:1 863:1 
0.96890574810617791 1:1 7:1 389:1 865:1 
1 7:1 10:1 323:1 548:1 866:1 
1 7:1 10:1 548:1 866:1 
1 72:1 132:1 867:1 868:1 869:1 
1 7:1 336:1 559:1 589:1 590:1 
1 26:1 336:1 559:1 589:1 590:1 
1 32:1 161:1 303:1 370:1 870:1 
1 25:1 72:1 336:1 729:1 871:1 
1 25:1 72:1 336:1 729:1 871:1 
1 1:1 7:1 185:1 440:1 872:1 
1 1:1 32:1 220:1 729:1 873:1 
1 1:1 10:1 729:1 823:1 873:1 
1 1:1 10:1 220:1 729:1 874:1 
1 1:1 729:1 874:1 875:1 876:1 
0.95968440132729504 10:1 316:1 365:1 877:1 
1 1:1 589:1 834:1 878:1 879:1 
1 1:1 399:1 589:1 834:1 879:1 
1 6:1 161:1 212:1 880:1 881:1 
1 6:1 9:1 38:1 212:1 
1 129:1 330:1 589:1 882:1 883:1 
1 330:1 589:1 882:1 883:1 884:1 
1 7:1 57:1 589:1 885:1 886:1 
1 57:1 589:1 885:1 886:1 887:1 
1 58:1 138:1 888:1 889:1 890:1 
1 7:1 10:1 129:1 891:1 892:1 
1 10:1 26:1 129:1 891:1 892:1 
1 161:1 893:1 894:1 895:1 
1 7:1 893:1 894:1 895:1 
1 7:1 896:1 897:1 
1 1:1 36:1 57:1 93:1 368:1 
1 1:1 36:1 57:1 129:1 900:1 
1 7:1 36:1 57:1 589:1 901:1 
1 36:1 57:1 589:1 901:1 902:1 
1 7:1 36:1 57:1 129:1 589:1 
1 13:1 36:1 57:1 129:1 589:1 
1 1:1 36:1 57:1 129:1 900:1 
1 1:1 25:1 36:1 57:1 903:1 
1 1:1 25:1 36:1 57:1 129:1 
1 25:1 72:1 129:1 612:1 904:1 
1 26:1 72:1 129:1 612:1 904:1 
1 209:1 907:1 908:1 909:1 910:1 
1 7:1 127:1 911:1 912:1 913:1 
1 127:1 911:1 912:1 913:1 914:1 
1 58:1 261:1 915:1 916:1 917:1 
1 58:1 138:1 261:1 916:1 917:1 
1 1:1 13:1 36:1 57:1 129:1 
1 399:1 814:1 846:1 918:1 919:1 
1 25:1 399:1 814:1 846:1 919:1 
1 2:1 7:1 141:1 236:1 920:1 
1 2:1 7:1 141:1 236:1 
1 2:1 6:1 141:1 236:1 921:1 
1 1:1 164:1 206:1 353:1 809:1 
1 1:1 353:1 399:1 809:1 922:1 
1 7:1 72:1 427:1 434:1 923:1 
1 1:1 25:1 57:1 129:1 317:1 
1 429:1 501:1 716:1 926:1 927:1 
1 605:1 928:1 929:1 930:1 931:1 
1 7:1 10:1 427:1 932:1 933:1 
1 1:1 7:1 672:1 934:1 935:1 
1 1:1 172:1 672:1 934:1 935:1 
1 7:1 496:1 936:1 937:1 
1 141:1 402:1 448:1 496:1 937:1 
1 141:1 165:1 402:1 448:1 938:1 
1 7:1 11:1 161:1 212:1 939:1 
1 7:1 301:1 589:1 590:1 940:1 
1 198:1 301:1 589:1 590:1 940:1 
1 317:1 342:1 494:1 562:1 590:1 
1 25:1 317:1 342:1 562:1 590:1 
1 38:1 317:1 342:1 590:1 606:1 
1 25:1 317:1 342:1 590:1 606:1 
1 1:1 138:1 316:1 317:1 941:1 
1 1:1 138:1 301:1 317:1 941:1 
1 1:1 13:1 36:1 57:1 129:1 
1 7:1 36:1 57:1 129:1 589:1 
1 26:1 36:1 57:1 129:1 589:1 
1 26:1 183:1 674:1 943:1 944:1 
1 253:1 945:1 946:1 947:1 948:1 
1 253:1 402:1 946:1 947:1 948:1 
0.57480410074290522 1:1 10:1 25:1 57:1 949:1 
1 1:1 10:1 57:1 129:1 949:1 
0.75820862129209332 1:1 26:1 57:1 129:1 949:1 
1 7:1 327:1 950:1 951:1 952:1 
1 161:1 482:1 732:1 953:1 954:1 
1 327:1 955:1 956:1 957:1 958:1 
1 58:1 138:1 220:1 635:1 959:1 
1 51:1 58:1 138:1 220:1 959:1 
1 7:1 36:1 57:1 129:1 589:1 
1 13:1 36:1 57:1 129:1 589:1 
1 3:1 7:1 161:1 716:1 960:1 
1 3:1 147:1 961:1 962:1 963:1 
0.52254881832306976 7:1 25:1 58:1 964:1 965:1 
1 104:1 721:1 966:1 967:1 
1 98:1 104:1 295:1 721:1 
1 1:1 25:1 57:1 72:1 129:1 
0.78868970931622562 1:1 26:1 36:1 57:1 129:1 
1 1:1 26:1 36:1 57:1 129:1 
1 1:1 26:1 36:1 57:1 129:1 
1 1:1 26:1 36:1 57:1 129:1 
1 1:1 25:1 57:1 176:1 317:1 
1 1:1 51:1 57:1 176:1 968:1 
1 1:1 13:1 36:1 57:1 129:1 
1 635:1 969:1 970:1 971:1 
1 1:1 13:1 36:1 57:1 129:1 
1 7:1 589:1 590:1 606:1 840:1 
1 507:1 589:1 590:1 606:1 840:1 
1 867:1 930:1 972:1 973:1 974:1 
1 813:1 867:1 930:1 973:1 974:1 
1 813:1 930:1 973:1 974:1 975:1 
1 7:1 104:1 138:1 976:1 
1 31:1 104:1 138:1 976:1 977:1 
1 10:1 381:1 978:1 979:1 980:1 
1 138:1 381:1 976:1 979:1 980:1 
1 138:1 381:1 976:1 977:1 980:1 
1 7:1 72:1 336:1 981:1 982:1 
1 10:1 342:1 563:1 981:1 983:1 
1 25:1 58:1 984:1 985:1 986:1 
1 58:1 72:1 93:1 316:1 672:1 
0.40936608311267902 25:1 58:1 253:1 985:1 
1 25:1 58:1 253:1 985:1 988:1 
1 7:1 26:1 72:1 129:1 989:1 
1 25:1 253:1 988:1 991:1 
1 25:1 32:1 253:1 988:1 991:1 
1 13:1 25:1 912:1 990:1 993:1 
1 7:1 25:1 912:1 990:1 993:1 
1 7:1 58:1 220:1 635:1 959:1 
1 58:1 220:1 635:1 959:1 990:1 
1 7:1 58:1 220:1 635:1 959:1 
1 131:1 132:1 994:1 995:1 996:1 
1 7:1 176:1 245:1 414:1 997:1 
1 7:1 58:1 220:1 635:1 959:1 
1 399:1 814:1 846:1 998:1 999:1 
1 25:1 399:1 814:1 846:1 999:1 
1 25:1 72:1 330:1 342:1 882:1 
1 1:1 316:1 317:1 1000:1 1001:1 
1 1:1 82:1 317:1 1000:1 1001:1 
1 25:1 58:1 301:1 959:1 1002:1 
1 25:1 58:1 301:1 864:1 959:1 
0.70483326920313827 62:1 147:1 245:1 1003:1 1004:1 
1 62:1 245:1 796:1 1003:1 1004:1 
1 7:1 129:1 589:1 711:1 1005:1 
1 26:1 129:1 589:1 711:1 1005:1 
1 7:1 336:1 589:1 590:1 606:1 
1 25:1 336:1 589:1 590:1 606:1 
1 5:1 295:1 330:1 364:1 492:1 
1 5:1 330:1 364:1 492:1 921:1 
1 7:1 198:1 637:1 995:1 1006:1 
1 13:1 576:1 589:1 603:1 1003:1 
1 23:1 129:1 212:1 230:1 1007:1 
1 72:1 306:1 1008:1 1009:1 1010:1 
1 306:1 571:1 1008:1 1009:1 1010:1 
1 7:1 995:1 1011:1 1012:1 
1 1:1 7:1 317:1 996:1 1013:1 
0.83502393582752987 1:1 7:1 317:1 1013:1 
0.63192591888244287 1:1 316:1 317:1 1013:1 1014:1 
1 1:1 317:1 1013:1 1014:1 1015:1 
1 1:1 316:1 317:1 1013:1 1016:1 
0.81202630010559163 1:1 317:1 1013:1 1016:1 1017:1 
1 7:1 72:1 310:1 589:1 1018:1 
1 72:1 310:1 589:1 1018:1 1019:1 
1 1:1 316:1 317:1 1013:1 1020:1 
1 1:1 317:1 1013:1 1020:1 1021:1 
1 7:1 62:1 72:1 131:1 1022:1 
0.88825053471908932 62:1 72:1 131:1 1022:1 1023:1 
1 7:1 589:1 673:1 729:1 1013:1 
1 589:1 673:1 674:1 729:1 1013:1 
1 1:1 25:1 317:1 1013:1 1017:1 
1 1:1 316:1 478:1 1013:1 1016:1 
1 1:1 478:1 1013:1 1016:1 1017:1 
1 1:1 72:1 1013:1 1016:1 1024:1 
1 1:1 72:1 1013:1 1016:1 1017:1 
1 1:1 317:1 478:1 1013:1 1016:1 
1 1:1 316:1 317:1 336:1 1013:1 
1 1:1 25:1 317:1 336:1 1013:1 
1 7:1 589:1 590:1 606:1 840:1 
1 507:1 589:1 590:1 606:1 840:1 
1 1:1 589:1 739:1 1013:1 1016:1 
1 1:1 589:1 1013:1 1016:1 1017:1 
1 7:1 336:1 589:1 590:1 606:1 
1 25:1 336:1 589:1 590:1 606:1 
1 1:1 7:1 138:1 1013:1 
1 1:1 25:1 589:1 1013:1 1017:1 
1 1:1 25:1 317:1 1013:1 1017:1 
1 1:1 25:1 589:1 1013:1 1017:1 
1 7:1 576:1 589:1 603:1 1019:1 
1 51:1 576:1 589:1 603:1 1019:1 
0.49662406635818085 7:1 576:1 578:1 589:1 603:1 
1 30:1 576:1 578:1 589:1 603:1 
1 7:1 25:1 571:1 576:1 603:1 
1 7:1 25:1 576:1 603:1 
1 7:1 336:1 589:1 995:1 1026:1 
1 7:1 25:1 336:1 589:1 1027:1 
0.92590349486566559 72:1 78:1 353:1 399:1 814:1 
0.74054121335587231 25:1 72:1 353:1 399:1 814:1 
1 25:1 72:1 353:1 399:1 814:1 
1 317:1 353:1 399:1 814:1 
1 25:1 317:1 353:1 399:1 814:1 
0.74267362073087084 1:1 7:1 589:1 1013:1 1017:1 
1 1:1 25:1 589:1 1013:1 1017:1 
1 1:1 7:1 589:1 1013:1 1017:1 
1 1:1 25:1 589:1 1013:1 1017:1 
1 1:1 30:1 93:1 672:1 729:1 
1 316:1 317:1 429:1 1028:1 1029:1 
1 317:1 429:1 1028:1 1029:1 1030:1 
1 7:1 578:1 603:1 846:1 1031:1 
1 571:1 578:1 603:1 846:1 1031:1 
1 1:1 163:1 494:1 635:1 1032:1 
1 1:1 163:1 494:1 635:1 1033:1 
1 25:1 72:1 353:1 399:1 814:1 
1 25:1 72:1 353:1 399:1 814:1 
1 78:1 353:1 399:1 589:1 814:1 
1 25:1 353:1 399:1 589:1 814:1 
1 7:1 317:1 353:1 814:1 
1 7:1 317:1 353:1 814:1 
1 7:1 72:1 912:1 1034:1 
0.60050394134952967 7:1 72:1 912:1 1034:1 
1 25:1 72:1 353:1 399:1 814:1 
1 7:1 72:1 78:1 353:1 814:1 
1 7:1 72:1 353:1 814:1 
1 7:1 301:1 995:1 1003:1 1027:1 
0.93867257364515155 25:1 58:1 129:1 959:1 1035:1 
0.99227123626270897 25:1 26:1 58:1 129:1 959:1 
0.13310505430349831 25:1 58:1 959:1 1037:1 1038:1 
1 25:1 58:1 959:1 1038:1 1039:1 
1 25:1 58:1 183:1 959:1 1040:1 
1 58:1 183:1 589:1 959:1 1041:1 
1 58:1 589:1 635:1 959:1 1041:1 
0.1705266824883975 13:1 58:1 129:1 589:1 959:1 
1 58:1 129:1 317:1 959:1 996:1 
1 7:1 1043:1 1044:1 1045:1 
1 7:1 336:1 995:1 1003:1 1027:1 
1 25:1 127:1 801:1 1046:1 1047:1 
1 127:1 801:1 1021:1 1046:1 1047:1 
1 7:1 589:1 590:1 606:1 840:1 
1 589:1 590:1 606:1 840:1 1048:1 
1 25:1 72:1 353:1 399:1 814:1 
1 78:1 353:1 399:1 589:1 814:1 
1 25:1 353:1 399:1 589:1 814:1 
1 7:1 129:1 330:1 364:1 589:1 
1 7:1 1049:1 1050:1 1051:1 
0.052718817055613466 31:1 1049:1 1050:1 1051:1 1052:1 
1 7:1 1050:1 1051:1 1052:1 
1 7:1 1050:1 1051:1 1052:1 
1 25:1 598:1 1053:1 1054:1 1055:1 
1 6:1 598:1 921:1 1054:1 1056:1 
1 23:1 68:1 75:1 175:1 634:1 
1 23:1 26:1 175:1 336:1 634:1 
1 25:1 58:1 253:1 985:1 986:1 
1 25:1 32:1 58:1 985:1 1041:1 
1 25:1 58:1 589:1 1059:1 1060:1 
1 10:1 482:1 1062:1 1063:1 
1 138:1 482:1 1063:1 1064:1 
1 32:1 147:1 1065:1 1066:1 1067:1 
1 138:1 147:1 1066:1 1067:1 1068:1 
1 32:1 75:1 961:1 1069:1 1070:1 
0.89542759607293743 10:1 49:1 316:1 1027:1 
1 10:1 49:1 823:1 1027:1 
1 10:1 135:1 147:1 198:1 1074:1 
1 7:1 72:1 485:1 756:1 1075:1 
1 7:1 25:1 72:1 986:1 1076:1 
1 7:1 30:1 127:1 1077:1 
0.99347082862464131 25:1 58:1 253:1 985:1 988:1 
1 25:1 32:1 58:1 985:1 988:1 
1 1:1 25:1 57:1 129:1 317:1 
1 1:1 25:1 36:1 57:1 368:1 
1 1:1 13:1 36:1 57:1 129:1 
1 1:1 13:1 36:1 57:1 129:1 
1 25:1 253:1 773:1 774:1 1085:1 
1 25:1 38:1 773:1 774:1 1085:1 
1 7:1 10:1 150:1 342:1 562:1 
1 10:1 25:1 150:1 342:1 562:1 
1 10:1 38:1 342:1 471:1 559:1 
1 10:1 25:1 342:1 471:1 559:1 
1 7:1 72:1 342:1 981:1 1086:1 
1 25:1 30:1 58:1 1087:1 1088:1 
1 30:1 72:1 78:1 923:1 1089:1 
1 7:1 25:1 58:1 1090:1 
0.39275538680184235 25:1 58:1 833:1 1091:1 1092:1 
1 7:1 93:1 253:1 1093:1 1094:1 
1 7:1 19:1 23:1 175:1 634:1 
1 7:1 132:1 161:1 206:1 1096:1 
1 51:1 429:1 1096:1 1097:1 1098:1 
1 25:1 32:1 58:1 139:1 833:1 
1 72:1 1099:1 1100:1 1101:1 1102:1 
1 72:1 183:1 1100:1 1101:1 1102:1 
1 1:1 51:1 81:1 137:1 1103:1 
1 1:1 51:1 137:1 1103:1 1104:1 
1 7:1 36:1 589:1 696:1 943:1 
1 36:1 589:1 674:1 696:1 943:1 
1 84:1 212:1 245:1 589:1 1105:1 
1 161:1 576:1 822:1 1107:1 1108:1 
1 161:1 576:1 1107:1 1108:1 1109:1 
1 25:1 32:1 253:1 833:1 1111:1 
1 7:1 25:1 253:1 1112:1 1113:1 
1 1:1 7:1 1114:1 1115:1 
1 1:1 25:1 1114:1 1115:1 1116:1 
1 25:1 93:1 317:1 672:1 1117:1 
1 49:1 208:1 358:1 1120:1 1121:1 
1 49:1 161:1 208:1 358:1 1121:1 
1 26:1 72:1 183:1 912:1 1122:1 
0.75655673956054847 10:1 49:1 336:1 1027:1 1123:1 
1 26:1 32:1 78:1 183:1 1126:1 
1 10:1 32:1 58:1 129:1 253:1 
1 7:1 25:1 58:1 1127:1 
1 1:1 26:1 36:1 57:1 129:1 
1 1:1 93:1 672:1 729:1 1129:1 
1 1:1 30:1 672:1 729:1 1130:1 
1 7:1 72:1 75:1 452:1 
0.37491376385340447 25:1 58:1 253:1 1127:1 1133:1 
1 25:1 30:1 58:1 1127:1 1133:1 
1 7:1 75:1 153:1 1136:1 1137:1 
1 7:1 75:1 153:1 1137:1 
1 72:1 658:1 1138:1 1139:1 1140:1 
1 72:1 658:1 1139:1 1140:1 1141:1 
1 25:1 58:1 1142:1 1143:1 1144:1 
1 7:1 30:1 1137:1 1145:1 
0.79238581289559618 30:1 31:1 1137:1 1145:1 1146:1 
1 25:1 68:1 183:1 288:1 1147:1 
0.020516123856775599 10:1 49:1 336:1 1027:1 1061:1 
1 58:1 220:1 965:1 1148:1 1149:1 
1 58:1 965:1 1148:1 1149:1 1150:1 
0.18175105467481312 7:1 72:1 912:1 1102:1 1122:1 
1 72:1 183:1 912:1 1102:1 1122:1 
1 25:1 58:1 253:1 1154:1 1155:1 
1 25:1 32:1 220:1 253:1 1156:1 
1 19:1 25:1 220:1 253:1 1156:1 
1 32:1 220:1 1147:1 1156:1 1157:1 
1 220:1 1147:1 1156:1 1157:1 1158:1 
0.4813234973919544 69:1 129:1 898:1 1159:1 1160:1 
1 7:1 25:1 72:1 336:1 548:1 
1 19:1 25:1 220:1 365:1 558:1 
0.10977554649917989 7:1 19:1 25:1 365:1 558:1 
1 25:1 36:1 72:1 696:1 986:1 
1 36:1 72:1 208:1 696:1 986:1 
0.18676978533866426 25:1 36:1 72:1 112:1 151:1 
1 7:1 36:1 112:1 151:1 
1 7:1 72:1 912:1 1102:1 1122:1 
1 72:1 183:1 912:1 1102:1 1122:1 
1 7:1 127:1 147:1 317:1 1166:1 
1 1:1 25:1 72:1 505:1 1167:1 
1 1:1 72:1 505:1 1167:1 1168:1 
1 25:1 72:1 364:1 365:1 693:1 
1 25:1 49:1 790:1 1027:1 1061:1 
1 25:1 49:1 790:1 1045:1 1061:1 
1 75:1 161:1 212:1 416:1 1172:1 
1 317:1 572:1 634:1 1173:1 1174:1 
1 317:1 399:1 572:1 634:1 1174:1 
1 23:1 68:1 75:1 175:1 634:1 
1 282:1 703:1 1176:1 1177:1 1178:1 
1 7:1 32:1 58:1 68:1 220:1 
1 7:1 571:1 572:1 1179:1 1180:1 
1 25:1 571:1 572:1 1180:1 1181:1 
0.98818609152068937 62:1 72:1 434:1 1182:1 1183:1 
1 7:1 72:1 537:1 732:1 1185:1 
1 72:1 342:1 537:1 732:1 1185:1 
1 150:1 246:1 342:1 562:1 950:1 
1 25:1 150:1 342:1 562:1 950:1 
1 316:1 317:1 1186:1 1187:1 1188:1 
1 317:1 1123:1 1186:1 1187:1 1188:1 
0.23872288002091252 355:1 570:1 571:1 576:1 1131:1 
1 10:1 43:1 51:1 72:1 244:1 
1 161:1 198:1 236:1 657:1 
1 198:1 236:1 657:1 1190:1 
1 7:1 72:1 1034:1 
0.63368754418805762 30:1 212:1 236:1 301:1 657:1 
1 32:1 212:1 1192:1 1193:1 1194:1 
1 75:1 1195:1 1196:1 1197:1 1198:1 
1 25:1 75:1 1196:1 1197:1 1198:1 
1 7:1 38:1 1199:1 1200:1 
1 31:1 38:1 276:1 1199:1 1200:1 
0.4975433595139776 127:1 912:1 1034:1 1102:1 1201:1 
1 10:1 355:1 1203:1 1204:1 1205:1 
0.2943275721552483 127:1 183:1 912:1 1034:1 1102:1 
1 147:1 571:1 572:1 576:1 579:1 
1 72:1 147:1 572:1 576:1 579:1 
1 72:1 147:1 1034:1 1101:1 
1 72:1 147:1 198:1 1034:1 1101:1 
1 4:1 75:1 358:1 1207:1 1208:1 
1 38:1 818:1 1209:1 1210:1 1211:1 
1 38:1 818:1 1210:1 1211:1 1212:1 
0.28255088475788143 1:1 4:1 147:1 358:1 1213:1 
1 4:1 7:1 51:1 1208:1 
1 10:1 25:1 93:1 449:1 1214:1 
1 10:1 32:1 93:1 449:1 1214:1 
1 25:1 32:1 220:1 253:1 1156:1 
0.57630236179756922 10:1 25:1 68:1 449:1 1214:1 
1 10:1 25:1 93:1 449:1 1214:1 
1 10:1 32:1 93:1 449:1 1214:1 
1 205:1 1217:1 1218:1 1219:1 1220:1 
0.10890180677600023 94:1 205:1 1218:1 1219:1 1220:1 
1 5:1 94:1 1220:1 1221:1 1222:1 
1 5:1 6:1 94:1 1221:1 1222:1 
1 32:1 199:1 310:1 1223:1 1224:1 
0.13108133006563916 199:1 310:1 717:1 1223:1 1224:1 
1 7:1 38:1 289:1 717:1 1224:1 
1 1:1 75:1 176:1 840:1 1225:1 
1 7:1 127:1 143:1 175:1 1226:1 
1 7:1 72:1 316:1 1227:1 
1 10:1 25:1 449:1 1214:1 1230:1 
1 10:1 32:1 449:1 1214:1 1230:1 
1 38:1 1231:1 1232:1 1233:1 1234:1 
1 127:1 133:1 134:1 1235:1 1236:1 
0.70906573085926372 10:1 49:1 81:1 1235:1 1237:1 
1 10:1 42:1 49:1 81:1 1237:1 
1 7:1 75:1 635:1 1239:1 1240:1 
1 7:1 342:1 427:1 471:1 755:1 
1 342:1 427:1 471:1 755:1 1245:1 
1 72:1 562:1 732:1 1174:1 1246:1 
0.14691809818021759 435:1 569:1 571:1 575:1 576:1 
0.88705431997328121 68:1 72:1 355:1 1248:1 1249:1 
1 72:1 355:1 1248:1 1249:1 
0.35924703918678402 26:1 183:1 355:1 576:1 579:1 
1 571:1 576:1 578:1 632:1 1250:1 
1 10:1 220:1 575:1 576:1 1253:1 
1 7:1 10:1 575:1 576:1 1253:1 
1 7:1 576:1 1254:1 
1 132:1 276:1 637:1 1255:1 1256:1 
1 10:1 183:1 912:1 1034:1 1102:1 
1 7:1 10:1 19:1 364:1 
1 161:1 330:1 488:1 525:1 1258:1 
0.01179359863318322 161:1 330:1 525:1 1258:1 1259:1 
0.13031278773346675 72:1 365:1 1260:1 1261:1 1262:1 
1 7:1 10:1 755:1 1263:1 1264:1 
1 474:1 1266:1 1267:1 1268:1 1269:1 
1 494:1 1267:1 1268:1 1269:1 1270:1 
1 1:1 127:1 260:1 1271:1 1272:1 
1 25:1 38:1 58:1 1073:1 1273:1 
1 7:1 32:1 717:1 1274:1 
1 1:1 6:1 32:1 440:1 1274:1 
1 1:1 6:1 164:1 440:1 1274:1 
1 7:1 127:1 1275:1 1276:1 1277:1 
1 127:1 674:1 1275:1 1276:1 1277:1 
1 7:1 10:1 25:1 342:1 755:1 
1 7:1 10:1 150:1 342:1 562:1 
1 7:1 10:1 150:1 342:1 562:1 
1 7:1 127:1 1279:1 1280:1 1281:1 
1 7:1 127:1 1280:1 1281:1 
1 25:1 342:1 1281:1 1282:1 
1 25:1 1047:1 1281:1 1282:1 
1 175:1 399:1 572:1 634:1 1284:1 
1 7:1 1270:1 1285:1 1286:1 1287:1 
1 435:1 1270:1 1285:1 1286:1 1287:1 
1 75:1 212:1 1033:1 1288:1 1289:1 
1 30:1 212:1 1159:1 1288:1 1290:1 
1 25:1 330:1 986:1 1294:1 
1 397:1 1159:1 1295:1 1296:1 1297:1 
1 161:1 276:1 397:1 1159:1 1297:1 
1 203:1 374:1 397:1 460:1 1298:1 
1 161:1 374:1 397:1 1298:1 1299:1 
1 6:1 18:1 414:1 1300:1 1301:1 
1 5:1 6:1 1303:1 1304:1 1305:1 
1 3:1 7:1 674:1 943:1 1306:1 
1 7:1 36:1 72:1 1307:1 1308:1 
1 36:1 72:1 1307:1 1308:1 1309:1 
1 32:1 36:1 696:1 998:1 1310:1 
1 25:1 32:1 36:1 696:1 1310:1 
1 212:1 460:1 569:1 784:1 1311:1 
1 7:1 212:1 784:1 1312:1 
1 10:1 212:1 1313:1 1314:1 1315:1 
1 25:1 131:1 132:1 245:1 1316:1 
1 10:1 25:1 449:1 1317:1 1318:1 
1 7:1 10:1 449:1 1317:1 1318:1 
1 7:1 10:1 150:1 562:1 1319:1 
1 10:1 150:1 562:1 1319:1 1320:1 
1 25:1 32:1 1124:1 1321:1 1322:1 
1 185:1 551:1 1069:1 1323:1 1324:1 
1 6:1 7:1 185:1 551:1 1124:1 
1 32:1 94:1 865:1 1325:1 1326:1 
0.25257623538443669 94:1 865:1 1325:1 1326:1 1327:1 
1 10:1 32:1 243:1 950:1 1332:1 
1 10:1 32:1 243:1 1332:1 1333:1 
1 7:1 127:1 290:1 1272:1 1334:1 
1 25:1 245:1 290:1 1272:1 1334:1 
1 198:1 992:1 1335:1 1336:1 1337:1 
1 82:1 198:1 1335:1 1336:1 1337:1 
1 1:1 25:1 245:1 246:1 770:1 
1 161:1 198:1 1339:1 1340:1 1341:1 
0.27339295837157512 132:1 212:1 1118:1 1342:1 1343:1 
1 132:1 206:1 212:1 1342:1 1343:1 
1 7:1 25:1 72:1 399:1 452:1 
1 7:1 127:1 837:1 1346:1 
1 7:1 10:1 576:1 579:1 1347:1 
1 7:1 10:1 576:1 579:1 
1 7:1 10:1 13:1 569:1 575:1 
1 10:1 13:1 276:1 569:1 575:1 
1 38:1 576:1 579:1 1348:1 1349:1 
1 38:1 576:1 579:1 921:1 1349:1 
0.80294073793580456 58:1 72:1 81:1 1352:1 1353:1 
1 1:1 32:1 93:1 163:1 220:1 
1 1:1 56:1 93:1 163:1 220:1 
1 7:1 1354:1 1355:1 1356:1 1357:1 
1 7:1 1355:1 1356:1 1357:1 
1 7:1 127:1 1007:1 1358:1 1359:1 
1 674:1 1007:1 1358:1 1359:1 1360:1 
1 23:1 402:1 674:1 1361:1 1362:1 
0.34797135864921386 7:1 127:1 442:1 635:1 1363:1 
1 442:1 635:1 674:1 1363:1 1364:1 
1 18:1 62:1 75:1 624:1 1365:1 
1 22:1 674:1 1284:1 1366:1 1367:1 
1 317:1 674:1 1366:1 1367:1 1368:1 
1 22:1 161:1 1284:1 1366:1 1369:1 
1 143:1 633:1 819:1 1284:1 1370:1 
1 7:1 32:1 72:1 220:1 1371:1 
1 147:1 1372:1 1373:1 1374:1 
1 317:1 674:1 993:1 1375:1 1376:1 
1 23:1 402:1 674:1 1366:1 1367:1 
1 7:1 10:1 81:1 1377:1 1378:1 
1 10:1 81:1 82:1 1377:1 1378:1 
1 7:1 72:1 893:1 1377:1 
1 131:1 132:1 206:1 245:1 546:1 
1 75:1 132:1 546:1 1380:1 1381:1 
1 75:1 132:1 317:1 546:1 1381:1 
1 1:1 231:1 1310:1 1382:1 1383:1 
1 1:1 30:1 231:1 1382:1 1383:1 
1 7:1 943:1 1384:1 1385:1 
1 7:1 1386:1 1387:1 1388:1 
0.97501395777886102 1:1 7:1 1387:1 1388:1 
1 1:1 7:1 1389:1 1390:1 
1 7:1 25:1 62:1 458:1 
0.66581545993008862 25:1 62:1 72:1 129:1 1391:1 
1 49:1 75:1 1067:1 1395:1 
1 131:1 132:1 224:1 1396:1 1397:1 
1 7:1 224:1 1396:1 1397:1 
1 131:1 132:1 206:1 1398:1 1399:1 
1 131:1 132:1 206:1 1398:1 1399:1 
1 176:1 212:1 497:1 1400:1 1401:1 
1 25:1 212:1 289:1 497:1 
1 25:1 147:1 206:1 497:1 1402:1 
1 25:1 147:1 176:1 497:1 1402:1 
1 7:1 68:1 770:1 1403:1 1404:1 
1 72:1 244:1 245:1 1312:1 1405:1 
1 72:1 245:1 246:1 1312:1 1405:1 
1 7:1 72:1 245:1 796:1 1406:1 
1 7:1 49:1 1407:1 
0.58047099569090177 6:1 103:1 569:1 1206:1 1408:1 
1 72:1 75:1 912:1 1034:1 1102:1 
1 1:1 13:1 36:1 57:1 129:1 
1 1:1 13:1 36:1 57:1 129:1 
1 30:1 212:1 253:1 414:1 1411:1 
1 30:1 212:1 253:1 988:1 1411:1 
1 10:1 30:1 212:1 253:1 988:1 
1 1:1 7:1 12:1 802:1 813:1 
1 1:1 7:1 12:1 813:1 
1 7:1 110:1 212:1 1414:1 
1 131:1 147:1 615:1 1354:1 1415:1 
1 131:1 147:1 615:1 1365:1 1415:1 
1 131:1 147:1 813:1 1365:1 1415:1 
1 75:1 212:1 798:1 1416:1 1417:1 
0.73960100085809799 75:1 212:1 798:1 1200:1 1417:1 
1 7:1 316:1 382:1 788:1 
1 7:1 316:1 382:1 788:1 
1 7:1 75:1 379:1 1418:1 
0.97763111711077377 49:1 75:1 317:1 819:1 1067:1 
1 589:1 893:1 1377:1 1422:1 1423:1 
1 6:1 18:1 25:1 1339:1 1424:1 
1 6:1 429:1 1425:1 1426:1 1427:1 
1 6:1 18:1 460:1 1427:1 
1 802:1 813:1 1414:1 1428:1 1429:1 
1 813:1 822:1 1414:1 1428:1 1429:1 
1 10:1 25:1 364:1 1430:1 1431:1 
1 10:1 342:1 364:1 1430:1 1431:1 
1 81:1 203:1 330:1 460:1 1432:1 
1 81:1 139:1 330:1 460:1 1432:1 
1 7:1 32:1 156:1 939:1 
1 32:1 50:1 939:1 1433:1 1434:1 
1 32:1 50:1 1433:1 1434:1 1435:1 
1 316:1 317:1 336:1 852:1 1436:1 
1 317:1 336:1 399:1 852:1 1436:1 
1 72:1 572:1 1071:1 1257:1 1437:1 
1 72:1 399:1 572:1 1071:1 1437:1 
1 7:1 316:1 317:1 364:1 
1 7:1 11:1 317:1 1439:1 1440:1 
1 7:1 11:1 317:1 1440:1 
1 81:1 127:1 893:1 1442:1 1443:1 
1 32:1 72:1 478:1 1441:1 1444:1 
1 10:1 25:1 364:1 365:1 801:1 
0.46625542882004162 10:1 364:1 365:1 801:1 1445:1 
0.71369836760174976 7:1 72:1 729:1 1446:1 
1 7:1 23:1 72:1 402:1 1360:1 
1 23:1 161:1 402:1 674:1 1360:1 
1 32:1 58:1 111:1 220:1 1447:1 
1 58:1 111:1 220:1 1157:1 1447:1 
1 7:1 23:1 127:1 402:1 1362:1 
1 17:1 206:1 429:1 802:1 1448:1 
1 17:1 206:1 429:1 802:1 1448:1 
1 75:1 310:1 1414:1 1449:1 1450:1 
1 25:1 491:1 1363:1 1451:1 1452:1 
1 161:1 491:1 1363:1 1451:1 1452:1 
1 615:1 701:1 1453:1 1454:1 
1 701:1 1453:1 1454:1 
1 6:1 701:1 1454:1 
1 6:1 615:1 701:1 1454:1 
1 7:1 20:1 246:1 1414:1 1455:1 
0.62012995246864855 25:1 135:1 355:1 576:1 1131:1 
0.36668205038614771 58:1 75:1 476:1 1456:1 1457:1 
1 58:1 75:1 476:1 1456:1 1457:1 
1 10:1 26:1 1458:1 1459:1 1460:1 
1 10:1 26:1 1459:1 1460:1 1461:1 
1 7:1 13:1 212:1 235:1 
1 72:1 75:1 175:1 1284:1 1462:1 
1 175:1 674:1 1284:1 1462:1 1463:1 
1 36:1 72:1 674:1 1464:1 1465:1 
0.39626072781898181 7:1 36:1 72:1 1464:1 1465:1 
1 36:1 72:1 674:1 1464:1 1465:1 
1 7:1 32:1 132:1 1466:1 
0.70936950070571991 7:1 72:1 485:1 1102:1 1467:1 
1 72:1 183:1 485:1 1102:1 1467:1 
0.69861244265113753 75:1 131:1 132:1 546:1 1468:1 
0.91358685947659057 75:1 132:1 317:1 546:1 1468:1 
1 10:1 114:1 1469:1 1470:1 1471:1 
1 10:1 114:1 880:1 1470:1 1471:1 
1 7:1 10:1 729:1 1184:1 1446:1 
1 10:1 729:1 1184:1 1446:1 1472:1 
1 17:1 25:1 183:1 1476:1 1477:1 
1 17:1 25:1 945:1 1476:1 1477:1 
0.45180309720498285 10:1 49:1 1061:1 1469:1 1478:1 
1 10:1 49:1 336:1 1061:1 1478:1 
1 58:1 206:1 986:1 1212:1 1479:1 
1 7:1 992:1 1480:1 1481:1 
1 7:1 10:1 141:1 613:1 1485:1 
1 10:1 141:1 613:1 1485:1 1486:1 
1 7:1 10:1 135:1 569:1 575:1 
1 10:1 135:1 569:1 575:1 988:1 
1 75:1 167:1 295:1 1487:1 1488:1 
1 32:1 167:1 295:1 1487:1 1488:1 
1 19:1 32:1 58:1 220:1 1073:1 
0.64118473382421293 7:1 72:1 729:1 1446:1 1489:1 
0.60053453539106905 72:1 729:1 1446:1 1489:1 1490:1 
1 7:1 72:1 1491:1 1492:1 1493:1 
1 72:1 1491:1 1492:1 1493:1 1494:1 
1 7:1 72:1 844:1 1495:1 
0.70846601067614612 31:1 72:1 844:1 1200:1 1495:1 
0.15026188274869062 10:1 898:1 1384:1 1498:1 1499:1 
0.30517972693197853 7:1 898:1 1384:1 1500:1 1501:1 
1 7:1 943:1 1159:1 1160:1 
1 7:1 36:1 72:1 1464:1 1503:1 
1 36:1 72:1 1229:1 1464:1 1503:1 
0.0055750087545807861 72:1 729:1 1184:1 1446:1 1504:1 
0.50650146166950205 1:1 7:1 72:1 515:1 1505:1 
1 1:1 69:1 72:1 515:1 1505:1 
1 7:1 72:1 141:1 613:1 1465:1 
1 72:1 141:1 613:1 1465:1 1506:1 
1 7:1 38:1 72:1 1507:1 1508:1 
1 10:1 19:1 36:1 1410:1 1507:1 
1 10:1 19:1 36:1 1464:1 1507:1 
0.6817063579159659 7:1 19:1 36:1 212:1 1464:1 
0.49246370629922798 1:1 147:1 1302:1 1510:1 1511:1 
1 7:1 206:1 721:1 1335:1 1512:1 
1 7:1 206:1 1335:1 1512:1 
1 10:1 25:1 58:1 129:1 253:1 
1 26:1 32:1 129:1 220:1 1360:1 
1 25:1 68:1 773:1 1513:1 1514:1 
1 7:1 25:1 68:1 773:1 1514:1 
0.25664699624606763 38:1 58:1 760:1 1515:1 1516:1 
1 7:1 452:1 1517:1 1518:1 
0.71492253648425252 5:1 6:1 55:1 919:1 1518:1 
1 10:1 51:1 68:1 1446:1 1519:1 
1 7:1 1520:1 1521:1 1522:1 1523:1 
1 1:1 25:1 279:1 341:1 1524:1 
0.063812515265675954 17:1 86:1 203:1 1525:1 1526:1 
1 17:1 203:1 460:1 1525:1 1526:1 
1 1:1 32:1 203:1 460:1 1507:1 
1 1:1 32:1 460:1 1507:1 1527:1 
1 1:1 32:1 1527:1 1528:1 1529:1 
1 32:1 153:1 1527:1 1528:1 1529:1 
1 7:1 195:1 1530:1 1531:1 
0.39137800376398352 7:1 62:1 1531:1 1532:1 1533:1 
1 32:1 62:1 1531:1 1532:1 1533:1 
1 176:1 212:1 796:1 1324:1 1536:1 
1 25:1 212:1 1537:1 1538:1 1539:1 
1 32:1 212:1 600:1 840:1 1289:1 
0.98301608635573645 25:1 58:1 68:1 1540:1 1541:1 
1 75:1 131:1 132:1 245:1 1542:1 
1 10:1 75:1 131:1 132:1 1542:1 
1 25:1 900:1 1190:1 1464:1 1544:1 
1 10:1 72:1 488:1 729:1 1446:1 
1 72:1 488:1 729:1 1446:1 1490:1 
1 10:1 25:1 72:1 336:1 1548:1 
1 7:1 300:1 386:1 1549:1 1550:1 
1 7:1 386:1 1549:1 1550:1 
1 19:1 36:1 212:1 858:1 1507:1 
1 1:1 25:1 82:1 245:1 979:1 
1 10:1 49:1 316:1 1552:1 1553:1 
1 7:1 72:1 137:1 1555:1 1556:1 
1 25:1 72:1 137:1 1555:1 1556:1 
1 62:1 208:1 822:1 950:1 1557:1 
1 62:1 208:1 822:1 1557:1 1558:1 
1 10:1 72:1 729:1 906:1 1446:1 
1 72:1 93:1 729:1 906:1 1446:1 
1 161:1 461:1 496:1 1560:1 1561:1 
1 49:1 77:1 624:1 1562:1 1563:1 
0.44116014123057601 49:1 872:1 1563:1 1564:1 
1 7:1 49:1 872:1 1564:1 
1 19:1 898:1 1499:1 1565:1 1566:1 
1 7:1 15:1 38:1 1569:1 
0.2315331246952716 1:1 72:1 399:1 1572:1 1573:1 
1 72:1 365:1 399:1 790:1 1574:1 
1 6:1 7:1 353:1 1575:1 
1 10:1 112:1 161:1 1217:1 1576:1 
0.089373260195500209 72:1 365:1 1260:1 1577:1 1578:1 
1 10:1 26:1 399:1 1579:1 1580:1 
1 25:1 58:1 536:1 965:1 1014:1 
1 310:1 1581:1 1582:1 1583:1 1584:1 
1 3:1 68:1 220:1 1585:1 1586:1 
1 3:1 7:1 68:1 1585:1 1586:1 
1 10:1 36:1 57:1 899:1 1587:1 
1 10:1 36:1 57:1 1587:1 1588:1 
1 25:1 36:1 57:1 1587:1 1588:1 
0.31026933830875797 10:1 72:1 729:1 1446:1 1589:1 
1 161:1 756:1 961:1 1124:1 1590:1 
1 1:1 81:1 1593:1 1594:1 1595:1 
1 38:1 382:1 950:1 1596:1 1597:1 
1 38:1 208:1 382:1 950:1 1597:1 
1 26:1 950:1 1594:1 1598:1 1599:1 
1 26:1 183:1 950:1 1594:1 1599:1 
0.75164492320747345 1:1 56:1 93:1 163:1 1061:1 
1 7:1 1600:1 1601:1 1602:1 1603:1 
1 7:1 1601:1 1602:1 1603:1 
1 21:1 147:1 212:1 1390:1 1550:1 
1 139:1 147:1 212:1 1390:1 1550:1 
1 17:1 21:1 25:1 276:1 1604:1 
1 17:1 25:1 276:1 1604:1 1605:1 
1 25:1 36:1 72:1 1606:1 1607:1 
1 36:1 72:1 721:1 1606:1 1607:1 
0.71248875497915209 58:1 68:1 1608:1 1609:1 1610:1 
1 619:1 1611:1 1612:1 1613:1 1614:1 
1 619:1 1612:1 1613:1 1614:1 1615:1 
1 161:1 1613:1 1614:1 1615:1 1616:1 
1 1613:1 1619:1 1620:1 1621:1 
1 1613:1 1620:1 1621:1 
1 1613:1 1620:1 1621:1 1622:1 
1 7:1 970:1 1613:1 1624:1 
0.71469686052010928 970:1 1613:1 1624:1 1625:1 
1 1613:1 1624:1 1625:1 
0.42648916984395552 1613:1 1624:1 1625:1 1626:1 
1 1613:1 1625:1 1626:1 
0.21255458379646067 1613:1 1625:1 1626:1 1627:1 
1 1613:1 1626:1 1627:1 
1 1613:1 1627:1 1628:1 
1 5:1 1613:1 1627:1 1628:1 
1 5:1 574:1 1613:1 1628:1 
0.70980116650303915 58:1 224:1 226:1 1629:1 1630:1 
1 7:1 525:1 1631:1 1632:1 
0.82819426799503848 58:1 72:1 81:1 1633:1 1634:1 
1 58:1 81:1 1633:1 1634:1 1635:1 
1 72:1 80:1 482:1 1636:1 1637:1 
1 72:1 80:1 482:1 1637:1 1638:1 
0.42253131567195451 1:1 32:1 234:1 317:1 939:1 
1 10:1 167:1 1639:1 1640:1 1641:1 
1 147:1 760:1 1641:1 1642:1 1643:1 
1 10:1 282:1 1639:1 1644:1 1645:1 
1 1:1 25:1 69:1 72:1 1161:1 
1 25:1 226:1 1134:1 1648:1 1649:1 
1 25:1 226:1 1134:1 1649:1 1650:1 
0.45001336484310162 7:1 226:1 1134:1 1649:1 1650:1 
1 1:1 10:1 81:1 422:1 919:1 
1 7:1 25:1 127:1 1651:1 1652:1 
1 25:1 127:1 245:1 1651:1 1652:1 
0.035241531205204173 7:1 49:1 75:1 1328:1 1653:1 
1 1:1 25:1 36:1 57:1 1655:1 
1 6:1 58:1 164:1 1657:1 1658:1 
1 7:1 75:1 1605:1 1659:1 
0.99744820326851358 7:1 26:1 72:1 738:1 1660:1 
1 26:1 72:1 183:1 738:1 1660:1 
1 1:1 14:1 72:1 1663:1 1664:1 
0.4842958877745101 7:1 260:1 898:1 1272:1 1384:1 
1 78:1 317:1 330:1 1667:1 1668:1 
0.94801831419653382 25:1 58:1 1112:1 1461:1 1669:1 
1 25:1 58:1 434:1 1112:1 1669:1 
1 25:1 58:1 1461:1 1671:1 1672:1 
1 7:1 26:1 58:1 362:1 1461:1 
1 30:1 719:1 1674:1 1675:1 1676:1 
0.76494562042075842 1:1 10:1 93:1 268:1 502:1 
1 7:1 75:1 317:1 1677:1 
1 1:1 14:1 72:1 1679:1 
1 72:1 818:1 1654:1 1680:1 1681:1 
1 68:1 72:1 1654:1 1680:1 1681:1 
1 131:1 132:1 190:1 206:1 1683:1 
1 10:1 132:1 190:1 206:1 1683:1 
1 10:1 25:1 253:1 402:1 1684:1 
1 7:1 25:1 68:1 253:1 833:1 
1 25:1 253:1 833:1 1685:1 1686:1 
1 7:1 19:1 25:1 1687:1 1688:1 
1 7:1 19:1 25:1 1688:1 
1 7:1 68:1 79:1 1324:1 1691:1 
1 7:1 26:1 72:1 738:1 1692:1 
1 26:1 72:1 183:1 738:1 1692:1 
1 7:1 460:1 1610:1 1693:1 
1 1:1 10:1 14:1 82:1 738:1 
1 161:1 1473:1 1694:1 1695:1 1696:1 
0.75003513050797477 32:1 1473:1 1694:1 1695:1 1696:1 
1 32:1 1694:1 1695:1 1696:1 1697:1 
1 1:1 127:1 801:1 1654:1 1700:1 
1 1:1 206:1 208:1 1160:1 1603:1 
1 206:1 745:1 1136:1 1703:1 1704:1 
1 6:1 801:1 872:1 1705:1 
1 6:1 7:1 18:1 729:1 
1 6:1 18:1 22:1 402:1 1706:1 
1 7:1 1710:1 1711:1 1712:1 
1 31:1 540:1 1710:1 1711:1 1712:1 
1 1:1 7:1 56:1 72:1 1713:1 
1 1:1 56:1 72:1 1713:1 1714:1 
1 7:1 10:1 115:1 278:1 1715:1 
1 10:1 115:1 278:1 565:1 1715:1 
1 25:1 253:1 833:1 1717:1 1718:1 
1 7:1 253:1 625:1 775:1 
1 1:1 10:1 25:1 81:1 105:1 
1 1:1 10:1 146:1 193:1 1724:1 
1 7:1 161:1 1725:1 1726:1 
1 31:1 161:1 1725:1 1726:1 1727:1 
1 69:1 317:1 1728:1 1729:1 
1 7:1 26:1 72:1 163:1 1732:1 
1 26:1 72:1 163:1 183:1 1732:1 
1 25:1 212:1 253:1 458:1 833:1 
1 25:1 773:1 1734:1 1735:1 1736:1 
1 7:1 131:1 132:1 1737:1 1738:1 
1 7:1 132:1 1737:1 1738:1 
1 10:1 30:1 32:1 103:1 1552:1 
0.33004911904192058 10:1 330:1 548:1 1740:1 1741:1 
1 381:1 976:1 1745:1 1746:1 1747:1 
0.23790926553859709 381:1 976:1 1746:1 1747:1 1748:1 
0.79350905105783776 7:1 195:1 1746:1 1747:1 1748:1 
0.95831224815998173 7:1 195:1 1747:1 1748:1 
1 7:1 389:1 477:1 1749:1 1750:1 
1 268:1 389:1 477:1 1749:1 1750:1 
1 268:1 477:1 1750:1 1751:1 
1 268:1 477:1 1750:1 1751:1 1752:1 
0.8078917432677033 25:1 773:1 774:1 1753:1 1754:1 
1 25:1 773:1 774:1 1754:1 1755:1 
1 1:1 25:1 26:1 72:1 1756:1 
1 1:1 26:1 72:1 183:1 1756:1 
0.53804917294090981 25:1 58:1 253:1 915:1 1059:1 
1 25:1 58:1 915:1 1059:1 1757:1 
1 7:1 72:1 1759:1 1760:1 1761:1 
1 69:1 72:1 1759:1 1760:1 1761:1 
1 10:1 58:1 72:1 887:1 1762:1 
1 1:1 10:1 78:1 231:1 1763:1 
0.28282046646711784 1:1 10:1 231:1 1763:1 1764:1 
1 1:1 72:1 231:1 491:1 1200:1 
1 25:1 625:1 1765:1 1766:1 1767:1 
1 6:1 161:1 1768:1 1769:1 1770:1 
1 6:1 161:1 540:1 1770:1 1771:1 
1 1:1 72:1 78:1 231:1 
1 1:1 72:1 231:1 801:1 
0.069399976286031728 1:1 68:1 72:1 78:1 231:1 
1 3:1 6:1 1772:1 1773:1 1774:1 
1 147:1 379:1 525:1 1775:1 1776:1 
1 75:1 147:1 853:1 1776:1 1777:1 
1 7:1 75:1 853:1 1776:1 1777:1 
1 81:1 82:1 127:1 330:1 364:1 
1 7:1 132:1 206:1 1780:1 1781:1 
1 1:1 429:1 687:1 1150:1 1782:1 
1 1:1 6:1 429:1 687:1 1782:1 
0.49032053800512937 1:1 25:1 245:1 246:1 268:1 
1 1:1 986:1 1413:1 1783:1 1784:1 
1 1:1 986:1 1413:1 1784:1 1785:1 
0.55836822540610553 1:1 206:1 212:1 756:1 1784:1 
1 1:1 206:1 212:1 1784:1 1786:1 
1 1:1 7:1 54:1 1787:1 
1 7:1 25:1 1788:1 1789:1 
1 1:1 7:1 25:1 1790:1 1791:1 
1 1:1 7:1 25:1 1791:1 
1 1:1 10:1 25:1 900:1 1792:1 
1 1:1 10:1 25:1 900:1 1792:1 
0.73556909818803884 1:1 10:1 69:1 900:1 1792:1 
1 12:1 1793:1 1794:1 1795:1 1796:1 
1 12:1 30:1 1794:1 1795:1 1796:1 
1 32:1 386:1 1797:1 1798:1 1799:1 
1 32:1 386:1 1798:1 1799:1 1800:1 
0.96353418062418872 7:1 68:1 330:1 1801:1 
1 7:1 68:1 330:1 1801:1 
1 7:1 72:1 252:1 1604:1 1802:1 
1 72:1 93:1 252:1 1604:1 1802:1 
1 25:1 198:1 253:1 301:1 1803:1 
0.47359435269854078 25:1 58:1 68:1 253:1 1804:1 
0.27192351980857132 25:1 30:1 58:1 84:1 1805:1 
1 25:1 52:1 656:1 773:1 881:1 
1 7:1 25:1 598:1 1054:1 1806:1 
1 7:1 38:1 599:1 1807:1 1808:1 
1 7:1 25:1 93:1 127:1 738:1 
1 7:1 9:1 212:1 1200:1 1811:1 
1 25:1 93:1 1708:1 1812:1 
1 7:1 25:1 947:1 1813:1 
1 1:1 10:1 78:1 231:1 1814:1 
0.80589614098425577 1:1 10:1 231:1 1814:1 1815:1 
1 1:1 7:1 1816:1 
1 7:1 72:1 81:1 187:1 1817:1 
1 1:1 86:1 197:1 813:1 966:1 
1 10:1 316:1 699:1 1728:1 1818:1 
1 10:1 69:1 316:1 1728:1 1819:1 
1 10:1 25:1 69:1 1728:1 1819:1 
0.021258358591071395 1:1 10:1 36:1 57:1 78:1 
0.76791364444528987 1:1 25:1 36:1 57:1 1820:1 
1 1:1 53:1 343:1 1822:1 1823:1 
1 10:1 93:1 161:1 316:1 1728:1 
1 25:1 32:1 93:1 222:1 1824:1 
1 25:1 32:1 72:1 222:1 1824:1 
1 26:1 253:1 1007:1 1358:1 1359:1 
1 7:1 1071:1 1825:1 1826:1 
0.20681203130206655 1:1 25:1 54:1 72:1 93:1 
1 25:1 72:1 86:1 1751:1 1827:1 
1 492:1 804:1 841:1 921:1 1751:1 
1 1:1 10:1 57:1 78:1 1828:1 
0.30119444942520429 1:1 10:1 57:1 148:1 1828:1 
1 1:1 10:1 51:1 57:1 78:1 
1 1:1 10:1 51:1 57:1 1829:1 
1 1:1 13:1 32:1 36:1 57:1 
0.34427915813248472 1:1 25:1 36:1 57:1 1708:1 
1 1:1 7:1 57:1 
0.46094329974184478 1:1 36:1 57:1 1831:1 1832:1 
1 10:1 57:1 613:1 899:1 1833:1 
1 10:1 57:1 613:1 1833:1 1834:1 
0.099439940540399077 1:1 10:1 25:1 1161:1 1836:1 
1 1:1 25:1 900:1 1161:1 1836:1 
0.63379495264193808 1:1 59:1 93:1 114:1 1837:1 
1 151:1 920:1 1838:1 1839:1 1840:1 
1 7:1 151:1 920:1 1839:1 1840:1 
1 7:1 898:1 1384:1 1546:1 
1 81:1 132:1 1841:1 1842:1 1843:1 
1 1:1 68:1 206:1 1844:1 1845:1 
1 32:1 301:1 440:1 1225:1 1846:1 
1 1:1 589:1 1847:1 1848:1 1849:1 
1 10:1 25:1 34:1 1818:1 1850:1 
1 32:1 209:1 1851:1 1852:1 
1 1:1 10:1 656:1 993:1 1853:1 
1 25:1 161:1 253:1 833:1 1854:1 
0.98321016565909169 25:1 58:1 68:1 1855:1 1856:1 
1 7:1 25:1 253:1 1857:1 
1 25:1 59:1 112:1 161:1 1499:1 
1 25:1 59:1 112:1 161:1 1369:1 
0.55472716568974301 72:1 572:1 634:1 1858:1 1859:1 
0.89397059600577222 72:1 316:1 1728:1 1860:1 1861:1 
1 1147:1 1728:1 1860:1 1861:1 1862:1 
1 1:1 5:1 30:1 501:1 1863:1 
1 68:1 147:1 634:1 822:1 1071:1 
0.45045532563235119 6:1 32:1 230:1 716:1 1864:1 
1 1:1 147:1 309:1 785:1 1865:1 
1 10:1 478:1 1866:1 1867:1 1868:1 
1 10:1 900:1 1866:1 1867:1 1868:1 
1 900:1 1866:1 1867:1 1868:1 1869:1 
1 10:1 784:1 1870:1 1871:1 1872:1 
1 10:1 784:1 1871:1 1872:1 1873:1 
1 7:1 32:1 525:1 1874:1 
1 6:1 7:1 35:1 529:1 
0.90974680291046794 58:1 433:1 631:1 1024:1 1876:1 
0.80536897819393183 58:1 1877:1 1878:1 1879:1 
0.6440919180379765 58:1 86:1 389:1 1879:1 1880:1 
1 103:1 551:1 704:1 822:1 1878:1 
0.087800688287051981 1:1 10:1 164:1 268:1 1881:1 
1 1097:1 1882:1 1883:1 1884:1 1885:1 
1 1:1 245:1 246:1 589:1 1886:1 
0.70352611234966167 1:1 43:1 244:1 628:1 1887:1 
1 38:1 379:1 1888:1 1889:1 1890:1 
1 38:1 379:1 1889:1 1890:1 1891:1 
1 212:1 711:1 822:1 1137:1 1893:1 
1 286:1 520:1 865:1 923:1 1894:1 
1 51:1 94:1 205:1 1895:1 1896:1 
1 51:1 94:1 205:1 1896:1 1897:1 
1 21:1 1471:1 1862:1 1898:1 1899:1 
1 21:1 1471:1 1898:1 1899:1 1900:1 
1 10:1 58:1 1903:1 1904:1 1905:1 
1 10:1 58:1 1904:1 1906:1 1907:1 
1 4:1 6:1 32:1 466:1 1908:1 
1 4:1 6:1 103:1 466:1 1908:1 
1 7:1 1910:1 1911:1 1912:1 
1 399:1 1910:1 1911:1 1912:1 1913:1 
1 58:1 1907:1 1909:1 1914:1 1915:1 
1 10:1 496:1 572:1 634:1 1071:1 
1 10:1 399:1 572:1 634:1 1071:1 
1 7:1 316:1 1268:1 
1 7:1 25:1 1916:1 1917:1 1918:1 
1 7:1 25:1 1917:1 1918:1 
1 25:1 208:1 317:1 1920:1 1921:1 
1 72:1 78:1 243:1 330:1 336:1 
1 317:1 330:1 996:1 1922:1 1923:1 
1 38:1 282:1 635:1 1924:1 1925:1 
1 38:1 82:1 282:1 1924:1 1925:1 
1 7:1 25:1 34:1 513:1 788:1 
1 7:1 25:1 34:1 788:1 
1 25:1 82:1 915:1 1926:1 1927:1 
1 7:1 589:1 770:1 1928:1 
1 78:1 330:1 589:1 790:1 1929:1 
1 330:1 589:1 790:1 1929:1 1930:1 
1 25:1 317:1 866:1 1061:1 1666:1 
1 25:1 866:1 1061:1 1130:1 1666:1 
1 1:1 57:1 589:1 1931:1 1932:1 
0.74431994541638336 1:1 3:1 6:1 38:1 1933:1 
1 7:1 316:1 317:1 866:1 1666:1 
0.13284109599476326 7:1 317:1 866:1 1666:1 
1 2:1 6:1 1095:1 1933:1 
1 317:1 635:1 866:1 1666:1 1936:1 
1 7:1 317:1 478:1 590:1 606:1 
1 7:1 317:1 590:1 606:1 
1 301:1 316:1 317:1 1937:1 
1 301:1 317:1 1422:1 1937:1 
1 7:1 161:1 214:1 230:1 295:1 
0.24876192375079842 7:1 214:1 230:1 295:1 
0.64235507043588158 58:1 301:1 316:1 317:1 1941:1 
1 58:1 301:1 317:1 1941:1 1942:1 
1 25:1 72:1 353:1 399:1 814:1 
1 32:1 38:1 84:1 365:1 1120:1 
0.15758893641279076 38:1 84:1 365:1 1120:1 1947:1 
1 7:1 23:1 633:1 1948:1 1949:1 
1 23:1 336:1 572:1 633:1 1949:1 
1 7:1 58:1 316:1 317:1 1866:1 
1 1:1 26:1 244:1 589:1 1623:1 
1 1:1 26:1 589:1 1239:1 1623:1 
1 1:1 161:1 268:1 301:1 589:1 
1 10:1 25:1 69:1 316:1 1728:1 
1 7:1 351:1 1951:1 1952:1 
1 31:1 165:1 351:1 1951:1 1952:1 
1 25:1 72:1 353:1 399:1 814:1 
1 7:1 50:1 110:1 1953:1 
1 7:1 17:1 1955:1 1956:1 
1 6:1 7:1 12:1 235:1 986:1 
1 32:1 94:1 111:1 235:1 1959:1 
1 32:1 94:1 111:1 235:1 1959:1 
1 1:1 185:1 290:1 396:1 1960:1 
1 1:1 25:1 317:1 399:1 1961:1 
1 30:1 32:1 58:1 220:1 1962:1 
1 23:1 175:1 399:1 572:1 1963:1 
1 14:1 23:1 175:1 399:1 1964:1 
1 23:1 38:1 175:1 634:1 1965:1 
1 69:1 316:1 788:1 1966:1 1967:1 
1 25:1 69:1 788:1 1966:1 1967:1 
1 7:1 1968:1 
0.34195854451025426 1:1 10:1 25:1 93:1 137:1 
1 7:1 316:1 317:1 866:1 1666:1 
1 7:1 317:1 866:1 1666:1 
1 192:1 316:1 1969:1 1970:1 1971:1 
1 13:1 25:1 84:1 230:1 990:1 
1 7:1 58:1 316:1 317:1 1972:1 
1 7:1 58:1 589:1 1972:1 
0.8762328879176946 7:1 58:1 589:1 1972:1 
1 25:1 69:1 788:1 1973:1 1974:1 
1 72:1 245:1 246:1 1780:1 1976:1 
1 25:1 206:1 1199:1 1977:1 1978:1 
1 62:1 81:1 1979:1 1980:1 1981:1 
1 131:1 132:1 1982:1 1983:1 1984:1 
1 132:1 1982:1 1983:1 1984:1 1985:1 
1 25:1 58:1 68:1 253:1 887:1 
1 7:1 25:1 58:1 68:1 887:1 
0.63809652515890325 211:1 551:1 1473:1 1987:1 1988:1 
1 32:1 551:1 729:1 1989:1 1990:1 
1 25:1 253:1 887:1 1991:1 1992:1 
1 25:1 281:1 282:1 317:1 1880:1 
1 281:1 282:1 589:1 718:1 1880:1 
1 212:1 214:1 711:1 950:1 1021:1 
0.5700944553126821 25:1 212:1 214:1 711:1 950:1 
1 58:1 317:1 1209:1 1996:1 1997:1 
0.59340484852331865 1:1 25:1 1998:1 1999:1 2000:1 
1 1:1 25:1 1422:1 1999:1 2000:1 
1 26:1 72:1 342:1 562:1 732:1 
1 276:1 637:1 2001:1 2002:1 2003:1 
0.41732288180639165 1:1 25:1 127:1 476:1 2004:1 
1 1:1 81:1 127:1 476:1 2004:1 
0.93362399472561031 7:1 127:1 342:1 606:1 732:1 
1 118:1 206:1 562:1 1279:1 2005:1 
1 118:1 562:1 1279:1 2005:1 2006:1 
1 93:1 1363:1 2010:1 2011:1 2012:1 
1 80:1 161:1 208:1 281:1 282:1 
1 25:1 58:1 300:1 921:1 2013:1 
1 7:1 80:1 281:1 282:1 921:1 
1 7:1 77:1 127:1 310:1 2014:1 
1 77:1 111:1 127:1 310:1 2014:1 
1 25:1 56:1 2015:1 2016:1 2017:1 
1 10:1 13:1 58:1 478:1 2007:1 
1 10:1 13:1 32:1 58:1 2007:1 
0.29267465159678069 32:1 58:1 317:1 2018:1 2019:1 
1 13:1 32:1 58:1 317:1 2018:1 
0.80788531165567046 7:1 58:1 2020:1 2021:1 
0.97759982720411298 341:1 1095:1 2022:1 2023:1 2024:1 
1 7:1 306:1 2025:1 2026:1 
1 306:1 2025:1 2026:1 2027:1 2028:1 
1 57:1 2025:1 2026:1 2027:1 2028:1 
0.75256789978610439 50:1 57:1 1095:1 2028:1 2029:1 
0.23451471752838937 26:1 58:1 183:1 317:1 2007:1 
1 6:1 7:1 18:1 208:1 2030:1 
1 1:1 32:1 2031:1 2032:1 2033:1 
1 7:1 127:1 151:1 2034:1 
1 125:1 212:1 226:1 436:1 2035:1 
1 6:1 18:1 212:1 226:1 2035:1 
1 25:1 58:1 900:1 2036:1 2037:1 
1 10:1 81:1 1134:1 2038:1 2039:1 
1 7:1 30:1 2040:1 2041:1 
1 30:1 161:1 2041:1 2042:1 2043:1 
1 7:1 58:1 78:1 2044:1 
1 7:1 25:1 79:1 80:1 
1 79:1 80:1 245:1 246:1 589:1 
0.40964968028251175 80:1 147:1 281:1 282:1 950:1 
1 32:1 1372:1 2046:1 2047:1 2048:1 
1 7:1 25:1 367:1 694:1 
1 25:1 253:1 773:1 2051:1 2052:1 
1 25:1 773:1 2051:1 2052:1 2053:1 
1 7:1 25:1 2054:1 2055:1 2056:1 
1 7:1 25:1 2055:1 2056:1 
1 7:1 72:1 770:1 
0.80960020965263335 206:1 529:1 1301:1 2057:1 2058:1 
0.99873859587370439 529:1 1301:1 2058:1 2059:1 2060:1 
1 6:1 1734:1 2061:1 2062:1 2063:1 
1 6:1 301:1 1734:1 2062:1 2063:1 
1 7:1 32:1 460:1 2064:1 2065:1 
1 7:1 32:1 2064:1 2065:1 
1 6:1 1734:1 2061:1 2062:1 2063:1 
1 6:1 1734:1 2061:1 2063:1 2066:1 
1 10:1 69:1 316:1 1728:1 1729:1 
1 72:1 73:1 316:1 2067:1 2068:1 
1 72:1 73:1 2067:1 2068:1 2069:1 
1 7:1 26:1 127:1 770:1 2070:1 
0.76630942239703426 6:1 28:1 77:1 167:1 2071:1 
1 1:1 13:1 25:1 269:1 2072:1 
0.65977133697849089 1:1 56:1 72:1 111:1 2077:1 
1 1:1 6:1 7:1 2078:1 
1 1:1 2:1 2080:1 
1 2:1 7:1 290:1 2081:1 
1 1:1 7:1 53:1 
1 72:1 81:1 478:1 2083:1 2084:1 
1 72:1 81:1 2083:1 2084:1 2085:1 
1 1673:1 2086:1 2087:1 2088:1 2089:1 
1 1673:1 2087:1 2088:1 2089:1 2090:1 
1 25:1 131:1 2087:1 2091:1 2092:1 
1 7:1 17:1 25:1 2094:1 2095:1 
1 7:1 17:1 25:1 2095:1 
1 245:1 317:1 478:1 2096:1 2097:1 
1 245:1 246:1 317:1 2096:1 2097:1 
0.99232901894817704 79:1 212:1 867:1 1957:1 2098:1 
1 79:1 185:1 212:1 2098:1 2099:1 
1 80:1 2100:1 2101:1 2102:1 2103:1 
1 80:1 2101:1 2102:1 2103:1 2104:1 
1 7:1 175:1 2103:1 2104:1 
1 25:1 127:1 208:1 2105:1 2106:1 
0.71265628599110609 212:1 214:1 230:1 2107:1 2108:1 
1 79:1 80:1 82:1 198:1 2109:1 
1 6:1 198:1 208:1 2109:1 2110:1 
1 25:1 212:1 1957:1 2109:1 2111:1 
1 867:1 1957:1 2112:1 2113:1 2114:1 
1 38:1 2112:1 2113:1 2114:1 2115:1 
1 7:1 589:1 858:1 1363:1 2116:1 
0.65323405848441418 121:1 858:1 1363:1 2116:1 2117:1 
1 7:1 38:1 2118:1 2119:1 
1 7:1 10:1 68:1 1363:1 2120:1 
1 7:1 10:1 1363:1 2120:1 
1 28:1 75:1 745:1 2121:1 2122:1 
1 58:1 81:1 1256:1 2123:1 2124:1 
1 2:1 7:1 134:1 317:1 2125:1 
1 7:1 151:1 594:1 2126:1 2127:1 
1 32:1 301:1 849:1 886:1 2129:1 
1 32:1 220:1 849:1 886:1 2129:1 
1 75:1 1440:1 2130:1 2131:1 2132:1 
1 7:1 1440:1 2130:1 2131:1 2132:1 
1 7:1 1440:1 2131:1 2132:1 
1 7:1 2133:1 2134:1 2135:1 
0.054521806517564997 2133:1 2134:1 2135:1 2136:1 2137:1 
1 293:1 2134:1 2135:1 2136:1 2137:1 
1 22:1 293:1 2135:1 2136:1 2137:1 
1 22:1 293:1 1007:1 2136:1 2137:1 
1 22:1 293:1 597:1 1007:1 2137:1 
1 22:1 597:1 1007:1 2138:1 2139:1 
1 597:1 2138:1 2139:1 2140:1 2141:1 
1 6:1 416:1 2143:1 2144:1 2145:1 
1 110:1 2146:1 2147:1 2148:1 2149:1 
1 7:1 110:1 2147:1 2148:1 2149:1 
1 3:1 7:1 2150:1 2151:1 
1 7:1 891:1 898:1 2152:1 
1 1:1 6:1 801:1 2153:1 2154:1 
1 51:1 317:1 950:1 2156:1 
1 32:1 93:1 127:1 436:1 2157:1 
1 72:1 84:1 244:1 245:1 1938:1 
1 72:1 84:1 245:1 246:1 1938:1 
1 1:1 7:1 72:1 143:1 1019:1 
1 1:1 290:1 345:1 461:1 
1 1:1 113:1 461:1 2161:1 2162:1 
1 1:1 32:1 113:1 2161:1 2162:1 
1 6:1 18:1 492:1 2163:1 2164:1 
1 6:1 18:1 301:1 492:1 2164:1 
1 1:1 161:1 310:1 350:1 2166:1 
1 7:1 13:1 2167:1 2168:1 2169:1 
1 58:1 75:1 147:1 2170:1 2171:1 
0.32014303419289813 32:1 118:1 132:1 1368:1 2172:1 
1 131:1 132:1 996:1 1781:1 2173:1 
1 10:1 132:1 996:1 1781:1 2173:1 
1 2:1 151:1 230:1 370:1 2174:1 
0.43705686453309517 2:1 38:1 151:1 212:1 230:1 
1 10:1 130:1 365:1 399:1 877:1 
1 7:1 10:1 2175:1 
1 38:1 282:1 1177:1 2176:1 2177:1 
1 10:1 282:1 1177:1 2177:1 2178:1 
1 2179:1 2180:1 2181:1 2182:1 2183:1 
1 42:1 2181:1 2182:1 2183:1 2184:1 
1 42:1 2182:1 2183:1 2184:1 2185:1 
1 2:1 7:1 2187:1 2188:1 
1 2:1 1390:1 2187:1 2188:1 2189:1 
1 1390:1 2027:1 2187:1 2188:1 2189:1 
0.049194127677369602 1:1 2:1 1390:1 2027:1 2190:1 
1 2:1 267:1 770:1 2190:1 2191:1 
0.90035551058665342 7:1 211:1 267:1 770:1 2191:1 
1 7:1 211:1 770:1 2191:1 
1 17:1 25:1 136:1 1699:1 2192:1 
1 7:1 56:1 72:1 310:1 2193:1 
1 56:1 72:1 111:1 310:1 2193:1 
0.69168567895424293 7:1 26:1 58:1 2194:1 
1 147:1 2195:1 2196:1 2197:1 
1 7:1 147:1 2196:1 2197:1 
1 7:1 26:1 127:1 342:1 607:1 
1 14:1 26:1 127:1 342:1 607:1 
1 7:1 10:1 121:1 2198:1 2199:1 
1 10:1 773:1 1097:1 2200:1 2201:1 
1 25:1 26:1 301:1 1284:1 2202:1 
1 20:1 132:1 813:1 2203:1 2204:1 
1 20:1 2203:1 2204:1 2205:1 2206:1 
1 7:1 943:1 1159:1 1160:1 
1 943:1 1159:1 1160:1 1272:1 2207:1 
1 7:1 36:1 253:1 696:1 
1 3:1 88:1 2208:1 2209:1 2210:1 
0.62159759972422013 3:1 88:1 1449:1 2209:1 2210:1 
0.99121602841105738 3:1 1449:1 2209:1 2210:1 2211:1 
1 17:1 2211:1 2212:1 2213:1 
1 17:1 2212:1 2213:1 2214:1 
1 7:1 19:1 365:1 2215:1 
1 10:1 364:1 365:1 2216:1 
1 10:1 364:1 365:1 801:1 
1 245:1 317:1 478:1 2217:1 2218:1 
1 245:1 246:1 317:1 2217:1 2218:1 
1 151:1 161:1 1088:1 2219:1 2220:1 
1 6:1 79:1 80:1 492:1 2219:1 
1 10:1 214:1 2125:1 2221:1 2222:1 
1 10:1 25:1 214:1 2221:1 2222:1 
1 32:1 175:1 222:1 655:1 1601:1 
1 10:1 75:1 131:1 132:1 2223:1 
1 72:1 147:1 207:1 1894:1 
1 38:1 207:1 212:1 1894:1 
1 132:1 257:1 711:1 
1 2:1 25:1 147:1 289:1 2224:1 
1 2:1 25:1 147:1 216:1 289:1 
1 84:1 147:1 525:1 2223:1 2225:1 
1 84:1 147:1 525:1 2225:1 2226:1 
1 7:1 84:1 147:1 2225:1 2226:1 
1 14:1 26:1 32:1 78:1 399:1 
1 7:1 26:1 72:1 183:1 1229:1 
1 26:1 36:1 72:1 183:1 1464:1 
0.081424185080282305 1:1 6:1 136:1 153:1 341:1 
1 6:1 75:1 2130:1 2227:1 2228:1 
1 6:1 75:1 276:1 2130:1 2228:1 
1 1:1 6:1 32:1 153:1 2229:1 
1 6:1 7:1 18:1 161:1 2130:1 
1 7:1 72:1 478:1 2230:1 2231:1 
1 7:1 72:1 2230:1 2231:1 
1 72:1 245:1 478:1 2230:1 2232:1 
1 72:1 245:1 246:1 2230:1 2232:1 
1 32:1 147:1 498:1 615:1 2233:1 
1 25:1 548:1 1190:1 2234:1 2235:1 
1 81:1 317:1 1781:1 2230:1 2236:1 
0.16359774178203296 1:1 7:1 19:1 1351:1 2237:1 
1 25:1 82:1 86:1 289:1 2238:1 
1 25:1 86:1 289:1 2238:1 2239:1 
1 6:1 25:1 82:1 1946:1 2240:1 
1 25:1 82:1 2241:1 2242:1 
0.46682493530446767 75:1 131:1 132:1 2243:1 2244:1 
1 10:1 75:1 132:1 2243:1 2244:1 
1 10:1 81:1 2243:1 2245:1 2246:1 
1 10:1 81:1 2243:1 2246:1 2247:1 
1 75:1 131:1 132:1 2243:1 2244:1 
1 69:1 316:1 317:1 1819:1 2248:1 
0.78405044516868938 69:1 316:1 317:1 1728:1 2250:1 
0.78522823777056316 69:1 316:1 317:1 1728:1 2251:1 
1 32:1 75:1 208:1 330:1 2252:1 
1 75:1 208:1 330:1 1372:1 2252:1 
0.74082335066991645 94:1 131:1 132:1 2253:1 2254:1 
1 142:1 212:1 1019:1 1601:1 2256:1 
1 72:1 245:1 246:1 1781:1 2257:1 
1 25:1 316:1 367:1 2258:1 2259:1 
1 317:1 478:1 2260:1 2261:1 2262:1 
1 30:1 921:1 2263:1 2264:1 2265:1 
1 30:1 2263:1 2264:1 2265:1 2266:1 
1 7:1 429:1 2267:1 2268:1 
0.4586652229106476 49:1 1302:1 2269:1 2270:1 2271:1 
1 62:1 1067:1 2269:1 2273:1 2274:1 
1 62:1 161:1 1638:1 2269:1 2275:1 
1 62:1 161:1 1638:1 2275:1 2276:1 
1 1:1 161:1 716:1 1484:1 2276:1 
0.53676525993034585 1:1 423:1 716:1 1484:1 2276:1 
1 1:1 423:1 716:1 2277:1 
1 1:1 423:1 716:1 1217:1 2277:1 
0.79450057381095562 23:1 72:1 175:1 634:1 2278:1 
0.068821262115578055 23:1 175:1 399:1 572:1 634:1 
1 10:1 222:1 1256:1 1352:1 2279:1 
1 10:1 222:1 338:1 1256:1 1352:1 
1 25:1 26:1 93:1 268:1 269:1 
1 1:1 7:1 25:1 183:1 268:1 
1 1:1 7:1 25:1 183:1 268:1 
1 7:1 2281:1 2282:1 2283:1 
1 1:1 25:1 2154:1 2284:1 2285:1 
1 1:1 25:1 1279:1 2154:1 2285:1 
0.76746458384083871 2:1 134:1 328:1 2286:1 2287:1 
1 2:1 82:1 134:1 328:1 2288:1 
1 17:1 25:1 396:1 1699:1 2224:1 
1 127:1 399:1 1436:1 2289:1 2290:1 
0.80091351232535013 1:1 6:1 1291:1 2291:1 2292:1 
1 25:1 543:1 1631:1 2295:1 2296:1 
1 25:1 246:1 543:1 2295:1 2296:1 
1 1:1 7:1 187:1 2297:1 
1 25:1 788:1 1666:1 1818:1 2299:1 
1 7:1 62:1 207:1 316:1 1234:1 
1 62:1 207:1 316:1 1061:1 1234:1 
1 26:1 72:1 183:1 697:1 2300:1 
1 25:1 69:1 788:1 1973:1 2301:1 
0.91606292691827795 10:1 316:1 788:1 1666:1 2093:1 
0.071103406108508141 10:1 69:1 788:1 1666:1 2093:1 
0.32948688914990987 1:1 32:1 145:1 197:1 2302:1 
1 7:1 25:1 72:1 127:1 738:1 
1 1:1 81:1 127:1 919:1 2303:1 
1 25:1 183:1 301:1 1390:1 2304:1 
1 25:1 301:1 1390:1 2304:1 2305:1 
0.24509994485319792 1:1 76:1 127:1 369:1 2307:1 
1 245:1 246:1 316:1 317:1 724:1 
0.71267386017003131 69:1 317:1 788:1 1973:1 2308:1 
1 32:1 1080:1 2309:1 2310:1 2311:1 
1 245:1 246:1 317:1 2312:1 2313:1 
1 27:1 865:1 1975:1 2314:1 2315:1 
1 7:1 2306:1 2316:1 2317:1 
1 31:1 2306:1 2316:1 2317:1 2318:1 
0.8372612638536453 7:1 23:1 68:1 633:1 2319:1 
1 23:1 331:1 633:1 2319:1 2320:1 
1 25:1 73:1 316:1 317:1 1728:1 
1 75:1 77:1 310:1 2322:1 2323:1 
1 77:1 156:1 1489:1 2327:1 2328:1 
1 7:1 32:1 52:1 402:1 2329:1 
0.31764469432825992 27:1 32:1 230:1 655:1 674:1 
1 27:1 231:1 1134:1 2330:1 2331:1 
1 27:1 32:1 94:1 381:1 2332:1 
0.35434557568438096 27:1 94:1 381:1 2332:1 2333:1 
0.20052285392291053 236:1 2334:1 2335:1 2336:1 2337:1 
1 25:1 253:1 833:1 1546:1 
0.61563800149128034 10:1 25:1 127:1 1095:1 2340:1 
1 10:1 25:1 301:1 1095:1 2340:1 
1 32:1 62:1 551:1 2343:1 
1 62:1 161:1 1658:1 2342:1 2344:1 
1 25:1 127:1 1214:1 2326:1 2345:1 
1 127:1 183:1 1214:1 2326:1 2345:1 
1 127:1 950:1 1005:1 1569:1 2349:1 
1 26:1 183:1 1005:1 1569:1 2349:1 
0.34804635595134736 127:1 163:1 1283:1 2326:1 2351:1 
1 127:1 163:1 183:1 2326:1 2351:1 
1 7:1 127:1 614:1 790:1 2352:1 
1 32:1 36:1 93:1 127:1 696:1 
0.60350212501688583 32:1 49:1 2353:1 2354:1 2355:1 
1 7:1 26:1 253:1 1778:1 2357:1 
1 399:1 1354:1 1441:1 2149:1 2358:1 
0.48634916775942588 7:1 49:1 161:1 306:1 2359:1 
1 6:1 112:1 151:1 361:1 732:1 
1 32:1 78:1 187:1 237:1 316:1 
1 25:1 75:1 849:1 2363:1 2364:1 
1 381:1 628:1 887:1 2365:1 2366:1 
1 72:1 78:1 79:1 81:1 2367:1 
1 72:1 79:1 81:1 82:1 2367:1 
1 276:1 1601:1 2368:1 2369:1 2370:1 
1 732:1 2371:1 2372:1 2373:1 
1 414:1 540:1 2374:1 2375:1 2376:1 
1 414:1 2374:1 2375:1 2376:1 2377:1 
0.89344283116687107 1:1 7:1 10:1 1100:1 
1 7:1 147:1 919:1 2380:1 
1 3:1 147:1 498:1 590:1 2381:1 
1 3:1 32:1 498:1 590:1 2381:1 
1 7:1 26:1 127:1 342:1 2383:1 
0.25109063378460905 10:1 49:1 790:1 1027:1 1061:1 
1 10:1 121:1 399:1 1257:1 1436:1 
1 6:1 46:1 865:1 2384:1 2385:1 
1 6:1 18:1 46:1 865:1 2385:1 
1 153:1 790:1 863:1 2386:1 2387:1 
1 25:1 69:1 317:1 2388:1 2389:1 
1 7:1 25:1 316:1 1818:1 2390:1 
1 7:1 25:1 1818:1 2390:1 
1 13:1 25:1 127:1 1161:1 2391:1 
1 13:1 25:1 1161:1 1818:1 2391:1 
1 6:1 32:1 103:1 2392:1 2393:1 
1 6:1 103:1 161:1 2392:1 2393:1 
1 7:1 58:1 436:1 2395:1 
1 7:1 10:1 342:1 2397:1 
1 10:1 31:1 342:1 2397:1 2398:1 
1 6:1 7:1 2399:1 2400:1 
1 6:1 7:1 461:1 789:1 2401:1 
1 6:1 138:1 461:1 789:1 2401:1 
1 30:1 58:1 97:1 147:1 2402:1 
1 30:1 58:1 97:1 2402:1 2403:1 
1 10:1 94:1 2410:1 2411:1 2412:1 
1 6:1 199:1 1975:1 2418:1 2419:1 
1 6:1 27:1 199:1 2418:1 2419:1 
1 1:1 57:1 81:1 1945:1 
1 50:1 98:1 330:1 891:1 
1 19:1 436:1 572:1 634:1 1071:1 
1 7:1 10:1 69:1 77:1 770:1 
1 7:1 68:1 127:1 770:1 
1 26:1 32:1 183:1 697:1 2423:1 
0.57886568956828632 7:1 711:1 2428:1 2429:1 
1 1:1 10:1 137:1 208:1 988:1 
1 7:1 77:1 1928:1 2430:1 2431:1 
1 32:1 38:1 220:1 1175:1 2432:1 
1 10:1 25:1 2434:1 2435:1 
1 7:1 10:1 25:1 2434:1 2435:1 
1 25:1 330:1 2436:1 2437:1 2438:1 
1 23:1 32:1 203:1 402:1 1314:1 
1 6:1 212:1 2440:1 2441:1 2442:1 
1 32:1 110:1 151:1 404:1 2443:1 
1 10:1 93:1 2447:1 2448:1 2449:1 
1 1:1 2450:1 2451:1 2452:1 2453:1 
1 7:1 127:1 342:1 590:1 2454:1 
1 26:1 127:1 342:1 590:1 2454:1 
1 38:1 323:1 543:1 800:1 2455:1 
1 10:1 25:1 2435:1 2456:1 
1 10:1 25:1 2435:1 2456:1 
1 7:1 330:1 2457:1 2458:1 
1 7:1 127:1 342:1 537:1 732:1 
1 26:1 127:1 342:1 537:1 732:1 
1 13:1 127:1 253:1 2435:1 2460:1 
1 7:1 23:1 127:1 175:1 572:1 
1 325:1 770:1 881:1 1722:1 2461:1 
1 32:1 325:1 770:1 881:1 1722:1 
1 1:1 6:1 7:1 136:1 351:1 
1 1:1 10:1 316:1 2462:1 2463:1 
0.93678283333021461 1:1 10:1 2462:1 2463:1 2464:1 
1 25:1 43:1 58:1 82:1 510:1 
0.070314575168916232 49:1 72:1 316:1 336:1 2465:1 
1 7:1 19:1 32:1 58:1 220:1 
0.99308051109589313 10:1 49:1 336:1 1027:1 1061:1 
1 78:1 121:1 127:1 134:1 2466:1 
1 1:1 25:1 93:1 1343:1 1995:1 
1 1:1 25:1 1343:1 1995:1 
1 17:1 25:1 93:1 1699:1 2470:1 
1 2:1 6:1 112:1 732:1 2471:1 
1 2:1 6:1 112:1 361:1 732:1 
1 240:1 316:1 2473:1 2474:1 2475:1 
1 25:1 240:1 2473:1 2474:1 2475:1 
1 1:1 56:1 138:1 2476:1 2477:1 
1 1:1 56:1 111:1 138:1 2477:1 
0.52959356779411715 1:1 10:1 26:1 253:1 2478:1 
1 1:1 72:1 253:1 316:1 2472:1 
1 7:1 25:1 43:1 230:1 510:1 
1 2482:1 2483:1 2484:1 2485:1 2486:1 
0.88713490714983612 2483:1 2484:1 2485:1 2486:1 2487:1 
1 7:1 2484:1 2485:1 2486:1 2487:1 
1 7:1 2485:1 2486:1 2487:1 
0.043018261829636917 1:1 25:1 268:1 2488:1 
1 10:1 25:1 301:1 2490:1 2491:1 
1 1:1 13:1 25:1 269:1 2072:1 
1 1:1 25:1 57:1 317:1 524:1 
1 1:1 6:1 7:1 103:1 
0.030421353931466215 1:1 6:1 103:1 416:1 2492:1 
1 38:1 282:1 1482:1 2493:1 2494:1 
1 212:1 448:1 2498:1 2499:1 2500:1 
1 38:1 289:1 2501:1 2502:1 2503:1 
1 38:1 289:1 2502:1 2503:1 2504:1 
1 25:1 49:1 939:1 2207:1 2505:1 
1 38:1 289:1 2207:1 2485:1 2504:1 
1 25:1 26:1 317:1 2506:1 2507:1 
1 26:1 183:1 317:1 2506:1 2507:1 
0.53667524537508382 21:1 30:1 139:1 195:1 214:1 
1 25:1 628:1 2509:1 2510:1 2511:1 
0.7852191341167567 62:1 624:1 1156:1 2468:1 2512:1 
1 10:1 26:1 81:1 281:1 327:1 
1 10:1 77:1 81:1 281:1 327:1 
1 1:1 129:1 281:1 2358:1 2513:1 
1 7:1 151:1 161:1 167:1 
1 25:1 1301:1 1552:1 2515:1 2516:1 
1 25:1 1301:1 2515:1 2516:1 
0.064360937149471428 1301:1 2294:1 2516:1 
1 1301:1 1673:1 2294:1 2516:1 
1 32:1 1301:1 1673:1 2517:1 
1 32:1 1301:1 1673:1 2517:1 2518:1 
0.58980181510194896 10:1 121:1 134:1 151:1 399:1 
1 58:1 1884:1 2519:1 2520:1 2521:1 
1 58:1 253:1 1190:1 1884:1 2521:1 
1 25:1 32:1 2522:1 2523:1 2524:1 
1 32:1 82:1 2526:1 2527:1 2528:1 
1 25:1 32:1 2526:1 2527:1 2528:1 
0.53155797362390134 1:1 10:1 26:1 253:1 2530:1 
1 7:1 38:1 49:1 2531:1 2532:1 
1 3:1 147:1 2476:1 2533:1 2534:1 
0.65416845152213687 32:1 110:1 132:1 199:1 2535:1 
0.54123134057543809 7:1 51:1 58:1 820:1 2536:1 
1 51:1 58:1 727:1 820:1 2536:1 
1 6:1 1136:1 1175:1 1464:1 2537:1 
0.97984535119370175 6:1 38:1 471:1 1175:1 1464:1 
1 6:1 38:1 471:1 1464:1 2538:1 
1 7:1 286:1 2539:1 2540:1 2541:1 
1 80:1 81:1 123:1 281:1 282:1 
1 1:1 7:1 75:1 953:1 2542:1 
1 1:1 7:1 75:1 2542:1 
1 32:1 78:1 79:1 867:1 2543:1 
1 78:1 79:1 867:1 2543:1 2544:1 
1 26:1 317:1 950:1 2545:1 2546:1 
1 26:1 183:1 316:1 317:1 2233:1 
1 25:1 80:1 147:1 2547:1 2548:1 
1 30:1 80:1 281:1 282:1 2549:1 
1 32:1 78:1 79:1 81:1 2550:1 
1 78:1 79:1 81:1 2550:1 2551:1 
1 25:1 68:1 246:1 385:1 510:1 
1 7:1 25:1 68:1 246:1 385:1 
1 220:1 1230:1 1390:1 2552:1 2553:1 
1 10:1 1230:1 1390:1 2552:1 2553:1 
0.81164412182102808 80:1 161:1 240:1 281:1 282:1 
1 26:1 183:1 253:1 316:1 2554:1 
1 26:1 32:1 183:1 253:1 2554:1 
1 6:1 10:1 116:1 1217:1 2555:1 
1 10:1 116:1 1217:1 2555:1 2556:1 
1 6:1 2561:1 2562:1 2563:1 2564:1 
1 25:1 26:1 93:1 268:1 2445:1 
0.73575880414684258 10:1 330:1 1621:1 2567:1 2568:1 
1 10:1 342:1 610:1 788:1 2006:1 
1 2:1 32:1 216:1 1882:1 2570:1 
1 1:1 7:1 25:1 138:1 197:1 
1 1:1 25:1 138:1 197:1 2571:1 
1 7:1 127:1 2572:1 2573:1 2574:1 
1 132:1 245:1 246:1 355:1 950:1 
1 1:1 56:1 76:1 2575:1 2576:1 
1 1:1 56:1 76:1 111:1 2576:1 
1 25:1 43:1 56:1 230:1 510:1 
1 25:1 43:1 56:1 111:1 230:1 
1 1:1 72:1 253:1 316:1 2577:1 
1 1:1 38:1 197:1 700:1 1136:1 
1 10:1 25:1 538:1 2581:1 2582:1 
1 10:1 183:1 538:1 2581:1 2582:1 
1 1:1 25:1 93:1 268:1 2583:1 
1 25:1 118:1 342:1 2584:1 2585:1 
1 25:1 26:1 118:1 342:1 2585:1 
1 30:1 132:1 301:1 2586:1 2587:1 
1 5:1 10:1 1301:1 1582:1 2589:1 
0.47071275734512225 5:1 98:1 1301:1 1582:1 2589:1 
0.99274315377906597 7:1 26:1 118:1 342:1 562:1 
1 7:1 161:1 2590:1 2591:1 2592:1 
1 49:1 77:1 82:1 2270:1 2594:1 
1 1:1 147:1 2376:1 2595:1 2596:1 
0.13205238576620321 1:1 147:1 2595:1 2596:1 2597:1 
1 38:1 147:1 471:1 2595:1 2597:1 
0.39505733600471266 1:1 10:1 1505:1 2598:1 2599:1 
1 25:1 115:1 245:1 2600:1 2601:1 
1 25:1 115:1 245:1 246:1 2601:1 
1 58:1 2602:1 2603:1 2604:1 2605:1 
1 58:1 2603:1 2604:1 2605:1 2606:1 
0.57760882110583256 7:1 58:1 2607:1 2608:1 
1 58:1 2607:1 2608:1 2609:1 2610:1 
0.98046812202158229 6:1 161:1 167:1 863:1 2613:1 
1 6:1 164:1 167:1 863:1 2613:1 
1 9:1 32:1 164:1 1455:1 1571:1 
0.74180869445592212 1:1 460:1 541:1 2559:1 2617:1 
0.024575593501349254 1:1 460:1 2559:1 2617:1 2618:1 
1 7:1 281:1 355:1 2621:1 
1 1:1 2622:1 2623:1 
1 1:1 775:1 2624:1 
1 1:1 775:1 2624:1 2625:1 
1 1:1 7:1 2129:1 2626:1 
1 1:1 7:1 2129:1 2626:1 
1 32:1 161:1 496:1 542:1 543:1 
1 32:1 161:1 542:1 543:1 2627:1 
1 7:1 10:1 156:1 2628:1 2629:1 
1 10:1 156:1 161:1 2628:1 2629:1 
1 62:1 2631:1 2632:1 2633:1 
1 13:1 32:1 220:1 449:1 1317:1 
1 13:1 220:1 449:1 1317:1 2634:1 
0.069298685040910302 38:1 485:1 551:1 655:1 2638:1 
0.97666757277446881 38:1 485:1 551:1 655:1 2639:1 
0.61424371679209167 3:1 199:1 212:1 626:1 2640:1 
1 3:1 38:1 199:1 212:1 626:1 
1 1:1 7:1 27:1 455:1 1828:1 
1 1:1 7:1 455:1 1828:1 
1 1:1 7:1 25:1 2641:1 2642:1 
1 1:1 7:1 25:1 2642:1 
1 6:1 30:1 2646:1 2647:1 2648:1 
1 6:1 30:1 103:1 2647:1 2648:1 
1 147:1 1284:1 2649:1 2650:1 2651:1 
1 147:1 921:1 1284:1 2650:1 2651:1 
1 1:1 111:1 161:1 2653:1 2655:1 
1 77:1 111:1 127:1 310:1 2656:1 
1 25:1 58:1 129:1 812:1 833:1 
1 7:1 68:1 1894:1 2657:1 
1 7:1 147:1 569:1 2658:1 
1 17:1 38:1 147:1 2658:1 2659:1 
1 17:1 38:1 147:1 1162:1 2659:1 
1 56:1 72:1 370:1 2660:1 2661:1 
1 7:1 151:1 2662:1 2663:1 
1 31:1 151:1 1007:1 2662:1 2663:1 
1 7:1 25:1 72:1 1446:1 
1 25:1 58:1 822:1 888:1 1154:1 
1 7:1 58:1 206:1 1154:1 
1 25:1 316:1 367:1 2258:1 2259:1 
1 1:1 68:1 76:1 77:1 111:1 
0.50895635599355848 1:1 86:1 151:1 1027:1 2665:1 
1 86:1 948:1 1027:1 1134:1 1284:1 
1 6:1 948:1 1134:1 1284:1 2066:1 
1 28:1 38:1 460:1 2666:1 2667:1 
1 28:1 38:1 2062:1 2666:1 2667:1 
1 1:1 56:1 72:1 206:1 993:1 
1 1:1 56:1 72:1 111:1 993:1 
1 32:1 38:1 2670:1 2671:1 2672:1 
1 38:1 510:1 2670:1 2671:1 2672:1 
1 1:1 32:1 328:1 551:1 2032:1 
1 32:1 206:1 542:1 813:1 2672:1 
0.164431911337315 7:1 10:1 81:1 105:1 365:1 
1 10:1 81:1 93:1 105:1 365:1 
1 2:1 161:1 1095:1 2675:1 2676:1 
1 2:1 161:1 863:1 1095:1 2676:1 
1 1:1 10:1 1335:1 2677:1 
1 147:1 317:1 950:1 1200:1 2678:1 
1 72:1 316:1 2361:1 2679:1 2680:1 
1 25:1 316:1 367:1 368:1 2259:1 
1 25:1 316:1 367:1 368:1 2259:1 
1 81:1 317:1 330:1 2524:1 2681:1 
1 1:1 137:1 301:1 2682:1 2683:1 
1 6:1 21:1 276:1 471:1 2684:1 
1 72:1 78:1 121:1 399:1 1436:1 
1 7:1 34:1 81:1 2685:1 2686:1 
1 7:1 34:1 2685:1 2686:1 
1 25:1 316:1 1306:1 2687:1 2688:1 
1 2:1 2691:1 2692:1 2693:1 2694:1 
0.40358418470473145 1:1 2:1 2692:1 2693:1 2694:1 
1 1:1 26:1 253:1 316:1 2695:1 
1 1:1 26:1 183:1 253:1 2695:1 
1 25:1 93:1 1699:1 2696:1 2697:1 
1 7:1 68:1 127:1 1699:1 
1 32:1 78:1 80:1 281:1 282:1 
1 6:1 103:1 2219:1 2698:1 2699:1 
1 6:1 75:1 103:1 2219:1 2699:1 
1 703:1 1882:1 2700:1 2701:1 2702:1 
0.024529469872378935 23:1 127:1 633:1 2703:1 2704:1 
1 23:1 331:1 633:1 2704:1 2705:1 
1 26:1 399:1 572:1 1858:1 2706:1 
1 7:1 26:1 183:1 336:1 
1 10:1 1558:1 2707:1 2708:1 2709:1 
1 10:1 78:1 147:1 2711:1 2712:1 
1 147:1 2711:1 2712:1 2713:1 2714:1 
1 7:1 535:1 2715:1 2716:1 
1 31:1 301:1 535:1 2715:1 2716:1 
1 7:1 21:1 32:1 471:1 2717:1 
1 7:1 21:1 471:1 2717:1 
1 21:1 236:1 551:1 656:1 657:1 
1 7:1 38:1 2719:1 2720:1 
1 31:1 38:1 2719:1 2720:1 2721:1 
0.21288891491485271 38:1 49:1 86:1 1653:1 2722:1 
1 38:1 49:1 86:1 391:1 1653:1 
1 7:1 622:1 2723:1 2724:1 
1 31:1 622:1 703:1 2723:1 2724:1 
0.75568838668486815 10:1 38:1 2233:1 2649:1 2725:1 
0.75744978064667312 10:1 38:1 2233:1 2649:1 2726:1 
1 7:1 912:1 1511:1 2728:1 
0.78627200462267699 912:1 1511:1 2582:1 2626:1 2728:1 
1 38:1 351:1 2081:1 2729:1 2730:1 
1 38:1 351:1 498:1 2081:1 2730:1 
1 25:1 32:1 1200:1 2736:1 2737:1 
1 7:1 25:1 72:1 336:1 2738:1 
1 7:1 13:1 1351:1 2739:1 
1 13:1 31:1 1351:1 1869:1 2739:1 
1 1:1 77:1 2740:1 2741:1 2742:1 
1 1:1 30:1 2740:1 2741:1 2742:1 
1 32:1 78:1 80:1 281:1 282:1 
1 80:1 81:1 82:1 281:1 282:1 
1 72:1 738:1 905:1 950:1 2743:1 
1 72:1 738:1 905:1 2743:1 2744:1 
1 58:1 826:1 867:1 2036:1 2745:1 
0.99096969714321337 58:1 867:1 2036:1 2745:1 2746:1 
1 58:1 161:1 198:1 452:1 2747:1 
0.76834058867410693 38:1 58:1 198:1 452:1 2747:1 
1 32:1 220:1 599:1 2748:1 
1 11:1 72:1 136:1 2720:1 2749:1 
0.0085201224804566291 49:1 635:1 2273:1 2750:1 2751:1 
1 49:1 635:1 1552:1 2273:1 2751:1 
0.089039449662302789 25:1 127:1 755:1 790:1 1095:1 
1 161:1 2594:1 2753:1 2754:1 2755:1 
1 7:1 32:1 220:1 833:1 
1 414:1 599:1 1435:1 2758:1 2759:1 
1 414:1 589:1 599:1 1435:1 2759:1 
1 6:1 7:1 461:1 2760:1 2761:1 
1 3:1 6:1 1291:1 2762:1 2763:1 
1 49:1 82:1 939:1 2764:1 2765:1 
1 7:1 212:1 2559:1 2767:1 
1 7:1 310:1 1291:1 1391:1 
1 26:1 171:1 183:1 355:1 2768:1 
1 30:1 62:1 901:1 1328:1 2769:1 
1 30:1 62:1 1328:1 2769:1 2770:1 
1 32:1 58:1 220:1 1788:1 2773:1 
1 58:1 220:1 812:1 1788:1 2773:1 
1 58:1 161:1 812:1 1788:1 2773:1 
1 1:1 32:1 872:1 2774:1 2775:1 
1 1:1 32:1 78:1 872:1 2775:1 
0.84724412985041186 1:1 72:1 316:1 2776:1 2777:1 
1 7:1 25:1 2598:1 2778:1 
1 25:1 31:1 2598:1 2778:1 2779:1 
1 7:1 898:1 1566:1 
1 1:1 32:1 321:1 589:1 2780:1 
1 1:1 32:1 78:1 321:1 589:1 
1 6:1 1473:1 2782:1 2783:1 2784:1 
1 38:1 49:1 1120:1 2785:1 2786:1 
1 32:1 75:1 716:1 1394:1 2787:1 
1 7:1 147:1 636:1 2788:1 
1 7:1 38:1 49:1 2789:1 
1 7:1 10:1 1363:1 1830:1 2790:1 
1 10:1 38:1 1363:1 1830:1 2790:1 
1 91:1 129:1 134:1 161:1 1224:1 
1 1:1 38:1 290:1 2791:1 2792:1 
1 94:1 212:1 252:1 373:1 637:1 
1 25:1 72:1 2795:1 2796:1 2797:1 
1 72:1 2795:1 2796:1 2797:1 2798:1 
0.54531163661951598 1:1 288:1 300:1 1791:1 1975:1 
1 13:1 25:1 93:1 268:1 269:1 
1 151:1 161:1 2799:1 2800:1 2801:1 
1 316:1 513:1 2259:1 2802:1 2803:1 
1 1:1 10:1 54:1 1546:1 2804:1 
1 25:1 127:1 321:1 2805:1 2806:1 
1 127:1 321:1 988:1 2805:1 2806:1 
0.7967301517716574 3:1 25:1 184:1 212:1 253:1 
1 3:1 25:1 129:1 184:1 212:1 
1 7:1 72:1 342:1 790:1 1550:1 
1 19:1 25:1 2807:1 2808:1 2809:1 
1 7:1 19:1 25:1 2808:1 2809:1 
1 14:1 26:1 72:1 171:1 316:1 
1 26:1 171:1 603:1 2812:1 2813:1 
1 25:1 93:1 301:1 1901:1 2814:1 
1 25:1 301:1 1901:1 2814:1 2815:1 
1 17:1 25:1 93:1 1699:1 2816:1 
0.40660799840384731 1:1 110:1 136:1 2817:1 2818:1 
1 525:1 1352:1 2562:1 2819:1 2820:1 
0.86995432122147587 525:1 1352:1 1607:1 2562:1 2820:1 
1 1:1 148:1 1607:1 2405:1 2433:1 
1 1:1 148:1 2405:1 2433:1 2821:1 
1 52:1 111:1 1673:1 2429:1 2822:1 
1 7:1 32:1 220:1 773:1 2051:1 
1 7:1 220:1 773:1 2051:1 
1 7:1 72:1 81:1 2823:1 2824:1 
0.166579402440998 1:1 127:1 137:1 1546:1 2804:1 
1 25:1 82:1 134:1 151:1 385:1 
0.80574663966133164 1:1 10:1 25:1 353:1 399:1 
1 7:1 543:1 2295:1 2826:1 
1 6:1 32:1 103:1 2827:1 2828:1 
1 6:1 103:1 492:1 2827:1 2828:1 
0.12255276276194849 1:1 77:1 111:1 310:1 2829:1 
1 1:1 7:1 77:1 589:1 2830:1 
1 1:1 77:1 589:1 2830:1 2831:1 
1 6:1 17:1 206:1 799:1 2832:1 
1 6:1 17:1 18:1 206:1 799:1 
1 1:1 7:1 589:1 1847:1 2833:1 
1 1:1 10:1 76:1 77:1 869:1 
0.18332527338924659 1:1 56:1 76:1 111:1 127:1 
1 62:1 206:1 1984:1 2644:1 2836:1 
1 49:1 503:1 510:1 1984:1 2837:1 
1 81:1 85:1 381:1 1421:1 1984:1 
1 3:1 81:1 85:1 1421:1 1984:1 
1 3:1 81:1 1421:1 1984:1 2838:1 
0.92866128872414677 3:1 1421:1 1528:1 1984:1 2838:1 
1 7:1 85:1 1984:1 2559:1 
1 68:1 72:1 427:1 1449:1 2839:1 
1 25:1 72:1 427:1 1449:1 2839:1 
1 72:1 132:1 185:1 1156:1 2842:1 
1 1:1 56:1 76:1 2843:1 2844:1 
1 1:1 510:1 2843:1 2845:1 2846:1 
1 6:1 25:1 355:1 2847:1 2848:1 
1 6:1 51:1 355:1 2848:1 2849:1 
1 38:1 99:1 138:1 1363:1 2850:1 
1 38:1 99:1 196:1 1363:1 2787:1 
1 10:1 1552:1 1623:1 2851:1 2852:1 
0.48069162223538731 25:1 195:1 282:1 2854:1 2855:1 
1 2:1 7:1 2858:1 2859:1 2860:1 
0.098443087253208522 316:1 317:1 330:1 2861:1 2862:1 
1 93:1 317:1 330:1 2861:1 2862:1 
1 32:1 52:1 82:1 471:1 2863:1 
1 32:1 52:1 471:1 2863:1 2864:1 
1 93:1 330:1 364:1 589:1 2866:1 
0.12818797917622032 1:1 77:1 111:1 310:1 2867:1 
1 6:1 32:1 477:1 636:1 2868:1 
0.14220600451041773 6:1 477:1 636:1 2868:1 2869:1 
1 1:1 25:1 26:1 183:1 268:1 
1 10:1 127:1 2456:1 2872:1 2873:1 
1 127:1 2456:1 2872:1 2873:1 2874:1 
1 1:1 56:1 72:1 75:1 111:1 
1 14:1 105:1 316:1 317:1 2326:1 
1 72:1 77:1 111:1 234:1 1512:1 
1 7:1 2875:1 2876:1 2877:1 
1 31:1 718:1 2875:1 2876:1 2877:1 
1 1:1 25:1 26:1 183:1 268:1 
1 1:1 25:1 26:1 183:1 268:1 
1 10:1 19:1 25:1 342:1 364:1 
0.48805430511461811 7:1 10:1 342:1 471:1 755:1 
1 10:1 342:1 471:1 755:1 790:1 
1 7:1 58:1 161:1 863:1 
0.93815968283317985 75:1 131:1 132:1 382:1 2879:1 
0.3372687036243146 75:1 132:1 317:1 382:1 2879:1 
1 7:1 127:1 342:1 606:1 732:1 
1 127:1 342:1 606:1 732:1 790:1 
1 7:1 49:1 2880:1 
1 1159:1 2416:1 2881:1 2882:1 2883:1 
1 281:1 711:1 851:1 1097:1 2886:1 
1 1:1 57:1 496:1 1357:1 2887:1 
0.21858016173055667 6:1 32:1 58:1 2888:1 2889:1 
1 1:1 32:1 93:1 127:1 231:1 
1 6:1 1558:1 2895:1 2896:1 2897:1 
1 25:1 332:1 1306:1 2899:1 2900:1 
1 1:1 25:1 36:1 57:1 2901:1 
0.068805153950981648 1:1 25:1 127:1 2395:1 2687:1 
1 7:1 68:1 230:1 260:1 572:1 
0.10939622376431711 1:1 25:1 57:1 317:1 2903:1 
1 13:1 23:1 253:1 1007:1 2904:1 
0.90117674896420807 32:1 773:1 774:1 2670:1 2905:1 
1 1:1 25:1 161:1 187:1 2907:1 
1 1:1 25:1 161:1 187:1 1369:1 
1 25:1 316:1 1306:1 1708:1 2908:1 
0.57482413387730635 75:1 132:1 317:1 1894:1 2909:1 
0.9137672916157441 3:1 72:1 2872:1 2911:1 2912:1 
1 3:1 2872:1 2911:1 2912:1 2913:1 
1 6:1 7:1 442:1 2914:1 2915:1 
1 1:1 77:1 111:1 234:1 2916:1 
0.57755877708461767 6:1 28:1 230:1 2917:1 2918:1 
1 6:1 635:1 948:1 1643:1 2919:1 
1 26:1 36:1 112:1 151:1 2920:1 
1 167:1 1344:1 2776:1 2921:1 2922:1 
1 167:1 2776:1 2921:1 2922:1 2923:1 
1 7:1 865:1 995:1 2924:1 
0.69506401541665352 25:1 253:1 773:1 774:1 988:1 
1 25:1 253:1 301:1 833:1 2913:1 
1 147:1 598:1 1054:1 1354:1 2626:1 
1 7:1 32:1 43:1 551:1 1005:1 
1 19:1 72:1 342:1 364:1 803:1 
1 7:1 22:1 23:1 2925:1 
1 22:1 23:1 26:1 253:1 2925:1 
0.30878661299002341 6:1 286:1 851:1 2926:1 2927:1 
0.46695530725155177 1:1 5:1 165:1 1314:1 2928:1 
1 1:1 7:1 81:1 321:1 2162:1 
1 1:1 81:1 321:1 399:1 2162:1 
1 1:1 77:1 111:1 161:1 
1 7:1 25:1 253:1 1073:1 1134:1 
1 7:1 25:1 1073:1 1134:1 
1 25:1 543:1 1348:1 1631:1 2295:1 
1 25:1 38:1 543:1 1348:1 2295:1 
1 6:1 103:1 402:1 2934:1 
1 7:1 25:1 529:1 2295:1 
1 7:1 330:1 1515:1 2936:1 
1 276:1 330:1 1515:1 2936:1 2937:1 
1 1:1 10:1 32:1 988:1 1844:1 
1 6:1 38:1 529:1 2939:1 2940:1 
1 6:1 7:1 38:1 529:1 2940:1 
1 288:1 510:1 2941:1 
1 4:1 7:1 286:1 1291:1 
1 10:1 11:1 25:1 2710:1 2720:1 
1 10:1 11:1 136:1 2710:1 2720:1 
1 21:1 251:1 345:1 656:1 1224:1 
1 21:1 251:1 656:1 1224:1 1656:1 
1 21:1 127:1 165:1 520:1 2944:1 
1 7:1 21:1 127:1 165:1 2944:1 
1 402:1 534:1 1095:1 1230:1 1284:1 
1 32:1 58:1 161:1 323:1 2948:1 
1 32:1 58:1 323:1 2948:1 2949:1 
0.73074906634602643 1:1 47:1 2950:1 2951:1 
1 47:1 98:1 788:1 2947:1 2951:1 
0.55353089854371185 25:1 58:1 68:1 1671:1 2952:1 
1 13:1 25:1 127:1 269:1 274:1 
1 13:1 25:1 269:1 274:1 
1 6:1 32:1 2953:1 2954:1 2955:1 
1 6:1 2953:1 2954:1 2955:1 2956:1 
1 25:1 49:1 138:1 718:1 2957:1 
0.029793363932597988 1:1 7:1 75:1 268:1 460:1 
1 1:1 7:1 10:1 2958:1 
1 1:1 7:1 10:1 2958:1 
1 17:1 185:1 282:1 295:1 2959:1 
1 7:1 8:1 17:1 2961:1 2962:1 
1 7:1 8:1 17:1 2961:1 
0.080123882884058653 6:1 17:1 187:1 2961:1 2963:1 
1 1:1 7:1 57:1 368:1 
0.45215188341500906 1:1 7:1 10:1 327:1 2964:1 
0.99413821849418094 1:1 7:1 72:1 208:1 2965:1 
1 1:1 72:1 208:1 2965:1 2966:1 
1 1:1 7:1 77:1 111:1 234:1 
1 1:1 68:1 353:1 1209:1 2969:1 
1 1:1 68:1 353:1 697:1 2969:1 
0.47657833016955448 1:1 1354:1 1957:1 2970:1 2971:1 
1 1:1 143:1 1957:1 2970:1 2971:1 
1 7:1 77:1 127:1 2027:1 2974:1 
1 7:1 25:1 69:1 1728:1 1729:1 
1 25:1 69:1 1728:1 1729:1 
1 1:1 77:1 111:1 317:1 2975:1 
1 147:1 364:1 365:1 589:1 1690:1 
0.52631098443392443 147:1 364:1 365:1 589:1 1153:1 
1 72:1 684:1 2977:1 2978:1 2979:1 
1 684:1 2906:1 2977:1 2978:1 2979:1 
1 25:1 147:1 1460:1 2980:1 2981:1 
1 25:1 316:1 368:1 1306:1 1655:1 
1 25:1 316:1 1335:1 1655:1 2259:1 
1 10:1 480:1 950:1 2982:1 
1 10:1 480:1 801:1 950:1 2982:1 
1 6:1 99:1 374:1 2983:1 2984:1 
1 6:1 18:1 99:1 374:1 2984:1 
1 7:1 131:1 132:1 206:1 1894:1 
1 7:1 42:1 460:1 1024:1 2985:1 
1 42:1 460:1 1024:1 2985:1 2986:1 
1 1:1 10:1 137:1 988:1 2938:1 
1 10:1 572:1 634:1 1071:1 2988:1 
1 10:1 399:1 572:1 634:1 1071:1 
0.16277321944910245 10:1 49:1 136:1 351:1 2594:1 
0.95909490703047984 10:1 49:1 136:1 351:1 2594:1 
0.53124670375827265 3:1 118:1 136:1 341:1 2989:1 
0.89548561008074001 3:1 118:1 2631:1 2989:1 2990:1 
1 10:1 199:1 2431:1 2994:1 2995:1 
1 32:1 199:1 2431:1 2994:1 2995:1 
1 10:1 282:1 336:1 904:1 1901:1 
1 26:1 72:1 316:1 2996:1 2997:1 
1 26:1 72:1 183:1 2996:1 2997:1 
0.7614483487382504 58:1 72:1 129:1 327:1 2998:1 
1 14:1 121:1 1901:1 2814:1 2999:1 
1 38:1 1901:1 3001:1 3002:1 3003:1 
1 30:1 2787:1 3004:1 3005:1 3006:1 
1 30:1 1344:1 2787:1 3005:1 3006:1 
1 26:1 72:1 187:1 478:1 3007:1 
1 26:1 72:1 183:1 187:1 3007:1 
1 25:1 183:1 628:1 1781:1 2230:1 
1 25:1 540:1 628:1 1781:1 2230:1 
1 10:1 72:1 316:1 538:1 3008:1 
1 7:1 72:1 167:1 478:1 
1 32:1 38:1 921:1 1098:1 1780:1 
1 10:1 132:1 206:1 382:1 384:1 
1 10:1 370:1 585:1 1005:1 1569:1 
1 13:1 121:1 585:1 1005:1 1569:1 
1 282:1 336:1 904:1 1901:1 
1 7:1 32:1 110:1 3013:1 3014:1 
0.8317432226536664 1:1 5:1 7:1 498:1 3015:1 
1 7:1 25:1 1901:1 2814:1 
1 25:1 58:1 129:1 3016:1 3017:1 
1 25:1 32:1 58:1 129:1 3017:1 
0.40579810072255817 73:1 77:1 132:1 230:1 3018:1 
1 7:1 199:1 1134:1 1787:1 3019:1 
0.93472950338020178 7:1 199:1 1134:1 3019:1 
1 7:1 50:1 1134:1 3020:1 
0.2295596840290299 1:1 10:1 2889:1 3021:1 3022:1 
0.56178334546947573 1:1 2889:1 3021:1 3022:1 3023:1 
1 1:1 161:1 995:1 3022:1 3023:1 
1 161:1 995:1 3022:1 3023:1 3024:1 
1 6:1 738:1 983:1 3025:1 3026:1 
1 6:1 103:1 738:1 3025:1 3026:1 
1 1:1 10:1 25:1 54:1 93:1 
0.55797404438325926 1:1 32:1 52:1 3028:1 3029:1 
1 1:1 32:1 1080:1 3028:1 3029:1 
1 1354:1 2420:1 3032:1 3033:1 3034:1 
1 25:1 2420:1 3032:1 3033:1 3034:1 
1 1:1 10:1 206:1 321:1 3035:1 
0.62435952638324055 1:1 10:1 316:1 3036:1 3037:1 
1 1:1 26:1 183:1 3036:1 3037:1 
1 72:1 75:1 131:1 132:1 3038:1 
1 10:1 267:1 3039:1 3040:1 3041:1 
1 10:1 267:1 3040:1 3041:1 3042:1 
1 267:1 3041:1 3042:1 3043:1 3044:1 
1 10:1 14:1 26:1 1901:1 2814:1 
1 26:1 72:1 342:1 562:1 732:1 
1 10:1 78:1 150:1 562:1 1279:1 
1 10:1 150:1 562:1 1279:1 3046:1 
1 7:1 25:1 367:1 1708:1 
1 17:1 27:1 32:1 94:1 1828:1 
1 17:1 32:1 94:1 154:1 1828:1 
1 7:1 30:1 3051:1 3052:1 3053:1 
1 86:1 206:1 569:1 796:1 3054:1 
1 7:1 86:1 206:1 569:1 3054:1 
1 6:1 7:1 381:1 3055:1 
1 214:1 1312:1 2626:1 3057:1 3058:1 
1 1:1 76:1 111:1 161:1 317:1 
1 26:1 127:1 183:1 449:1 1317:1 
1 32:1 252:1 2485:1 3060:1 
0.78919433664277772 6:1 7:1 252:1 2485:1 3060:1 
1 10:1 26:1 1690:1 1901:1 2814:1 
1 7:1 10:1 156:1 460:1 2436:1 
1 2:1 198:1 3061:1 3062:1 3063:1 
1 2:1 138:1 3061:1 3062:1 3063:1 
1 7:1 25:1 367:1 694:1 
1 69:1 357:1 898:1 988:1 1160:1 
1 14:1 121:1 342:1 365:1 559:1 
1 7:1 32:1 68:1 78:1 1780:1 
1 30:1 58:1 129:1 327:1 1957:1 
1 25:1 72:1 245:1 1446:1 3067:1 
1 72:1 245:1 246:1 1446:1 3067:1 
1 13:1 32:1 253:1 316:1 3068:1 
1 13:1 32:1 220:1 253:1 3068:1 
1 80:1 316:1 1021:1 2189:1 2677:1 
1 80:1 370:1 1021:1 2189:1 2677:1 
1 161:1 176:1 1150:1 3070:1 3071:1 
1 161:1 176:1 829:1 3070:1 3071:1 
1 161:1 728:1 1209:1 3071:1 3072:1 
1 161:1 728:1 829:1 3071:1 3072:1 
1 11:1 12:1 19:1 69:1 206:1 
1 25:1 316:1 1306:1 1708:1 
1 7:1 10:1 288:1 381:1 988:1 
1 10:1 32:1 288:1 381:1 988:1 
1 2:1 38:1 94:1 179:1 3073:1 
1 1:1 127:1 2162:1 3074:1 3075:1 
1 216:1 381:1 2501:1 3076:1 3077:1 
1 381:1 460:1 2501:1 3076:1 3077:1 
1 75:1 131:1 132:1 2246:1 3079:1 
1 75:1 132:1 317:1 2246:1 3079:1 
1 13:1 25:1 127:1 269:1 274:1 
1 25:1 36:1 72:1 612:1 3081:1 
1 25:1 36:1 72:1 612:1 3081:1 
1 75:1 131:1 132:1 2246:1 3082:1 
1 10:1 75:1 132:1 2246:1 3082:1 
1 1:1 10:1 32:1 129:1 290:1 
0.39553417336782881 10:1 1214:1 2756:1 3083:1 3084:1 
1 10:1 1214:1 2756:1 3084:1 3085:1 
1 161:1 1727:1 2273:1 3086:1 3087:1 
1 32:1 988:1 3088:1 3089:1 3090:1 
1 32:1 3088:1 3089:1 3090:1 
1 7:1 10:1 11:1 12:1 69:1 
1 10:1 11:1 12:1 69:1 3091:1 
1 7:1 10:1 11:1 24:1 
0.8236495643483549 58:1 93:1 301:1 1957:1 3093:1 
1 7:1 10:1 134:1 230:1 323:1 
1 1:1 7:1 32:1 635:1 3096:1 
1 1:1 7:1 635:1 3096:1 
1 15:1 212:1 2358:1 3097:1 3098:1 
1 1:1 25:1 93:1 269:1 3099:1 
1 1:1 25:1 26:1 269:1 3099:1 
1 26:1 115:1 269:1 317:1 2601:1 
1 127:1 132:1 2246:1 3100:1 3101:1 
1 10:1 25:1 909:1 1363:1 1830:1 
1 10:1 909:1 1363:1 1830:1 3102:1 
1 7:1 26:1 127:1 3103:1 3104:1 
1 423:1 1329:1 2178:1 3105:1 3106:1 
1 7:1 42:1 3107:1 3108:1 
1 6:1 7:1 3109:1 3110:1 
1 6:1 196:1 289:1 460:1 534:1 
1 11:1 12:1 69:1 72:1 144:1 
1 32:1 136:1 220:1 501:1 1689:1 
1 7:1 22:1 1291:1 3111:1 
1 72:1 80:1 81:1 147:1 282:1 
0.029889696547708341 72:1 80:1 245:1 2670:1 3113:1 
1 80:1 245:1 246:1 2670:1 3113:1 
1 32:1 220:1 501:1 728:1 
0.58679328452147628 32:1 1134:1 1644:1 3114:1 3115:1 
0.66586180944260098 161:1 1134:1 1644:1 3114:1 3115:1 
1 161:1 1134:1 1644:1 3115:1 3116:1 
1 7:1 576:1 1344:1 3117:1 3118:1 
1 7:1 576:1 1344:1 3118:1 
1 25:1 32:1 220:1 501:1 1689:1 
1 1:1 25:1 36:1 57:1 2962:1 
1 1:1 25:1 57:1 317:1 3119:1 
0.34663610505842701 7:1 288:1 355:1 1368:1 
1 1822:1 2294:1 3120:1 3121:1 3122:1 
1 5:1 1822:1 2294:1 3121:1 3122:1 
1 6:1 26:1 38:1 121:1 183:1 
1 26:1 38:1 103:1 121:1 183:1 
0.84926446729500171 1:1 77:1 111:1 207:1 317:1 
1 6:1 7:1 84:1 3123:1 
1 6:1 38:1 569:1 2382:1 3124:1 
1 6:1 569:1 635:1 2382:1 3124:1 
0.067843406343538179 10:1 282:1 804:1 904:1 1901:1 
1 14:1 121:1 365:1 3128:1 3129:1 
0.048721841422664468 121:1 365:1 3128:1 3129:1 3130:1 
1 86:1 216:1 1328:1 3131:1 3132:1 
0.099508514785365224 1:1 15:1 32:1 1335:1 2947:1 
0.9096706043892786 1:1 15:1 396:1 1335:1 2947:1 
1 86:1 171:1 404:1 3133:1 3134:1 
1 51:1 86:1 171:1 3133:1 3134:1 
0.75790765242174929 379:1 525:1 851:1 3135:1 3136:1 
1 6:1 379:1 851:1 3136:1 3137:1 
1 32:1 85:1 216:1 492:1 3138:1 
1 32:1 85:1 216:1 1190:1 3138:1 
1 22:1 211:1 402:1 808:1 3139:1 
1 6:1 103:1 211:1 808:1 3139:1 
1 25:1 296:1 316:1 1306:1 2901:1 
1 25:1 77:1 111:1 316:1 3140:1 
0.47853823343860652 401:1 1473:1 3141:1 3142:1 3143:1 
1 18:1 1270:1 1473:1 3142:1 3143:1 
0.76328955479026861 1:1 6:1 501:1 2632:1 3144:1 
1 32:1 220:1 3145:1 
1 32:1 220:1 1162:1 1689:1 3145:1 
1 7:1 11:1 12:1 
1 7:1 10:1 11:1 12:1 69:1 
1 10:1 11:1 12:1 25:1 69:1 
1 2:1 10:1 134:1 399:1 1257:1 
1 7:1 32:1 1218:1 3146:1 
1 6:1 103:1 206:1 3146:1 3147:1 
1 6:1 32:1 1218:1 3146:1 3149:1 
1 6:1 1218:1 3146:1 3149:1 
1 103:1 206:1 3146:1 3150:1 3151:1 
1 7:1 316:1 1689:1 2731:1 3152:1 
1 25:1 316:1 1689:1 2731:1 3152:1 
1 1:1 32:1 3153:1 3154:1 3155:1 
1 1:1 38:1 3153:1 3154:1 3155:1 
1 6:1 49:1 159:1 164:1 3156:1 
1 6:1 49:1 159:1 164:1 3157:1 
1 7:1 1080:1 3158:1 3159:1 3160:1 
1 7:1 1080:1 3159:1 3160:1 
1 7:1 27:1 1095:1 3161:1 
1 7:1 27:1 1095:1 3161:1 
1 10:1 32:1 706:1 3162:1 3163:1 
1 1:1 10:1 57:1 368:1 899:1 
1 1:1 10:1 25:1 57:1 368:1 
1 10:1 79:1 220:1 2200:1 3164:1 
1 2:1 80:1 1024:1 3165:1 3166:1 
1 2:1 80:1 716:1 3165:1 3166:1 
0.2784709818559522 25:1 30:1 80:1 132:1 353:1 
1 25:1 80:1 132:1 353:1 2677:1 
1 93:1 183:1 253:1 2258:1 3167:1 
1 25:1 93:1 183:1 2258:1 3167:1 
1 30:1 591:1 644:1 2258:1 3168:1 
1 30:1 591:1 644:1 3168:1 3169:1 
1 7:1 10:1 591:1 3170:1 
1 30:1 2631:1 3171:1 3172:1 3173:1 
1 1:1 7:1 77:1 234:1 
1 1:1 25:1 321:1 3174:1 3175:1 
0.90680915101343484 1:1 32:1 321:1 3175:1 3176:1 
1 203:1 460:1 2509:1 2510:1 2511:1 
0.60005086179521738 1:1 25:1 317:1 3074:1 3177:1 
1 1:1 10:1 77:1 111:1 234:1 
1 58:1 93:1 220:1 501:1 1689:1 
1 6:1 355:1 361:1 1291:1 3124:1 
0.32447064259726233 32:1 58:1 220:1 501:1 1689:1 
1 10:1 58:1 220:1 501:1 1689:1 
1 7:1 10:1 77:1 110:1 3179:1 
1 10:1 69:1 77:1 110:1 3179:1 
1 7:1 11:1 12:1 68:1 
1 7:1 11:1 12:1 3180:1 
1 10:1 26:1 147:1 183:1 1722:1 
1 26:1 147:1 183:1 1354:1 1722:1 
1 147:1 1354:1 1722:1 1957:1 3181:1 
1 51:1 58:1 147:1 327:1 2663:1 
1 51:1 58:1 147:1 327:1 2620:1 
1 30:1 628:1 1780:1 3182:1 3183:1 
1 10:1 93:1 330:1 364:1 
1 7:1 11:1 68:1 75:1 
0.17015676554082051 11:1 12:1 69:1 72:1 144:1 
1 11:1 24:1 69:1 75:1 3150:1 
1 11:1 24:1 25:1 69:1 75:1 
0.97457964413424003 1:1 10:1 244:1 2930:1 3186:1 
1 6:1 38:1 1901:1 3188:1 3189:1 
1 6:1 38:1 161:1 1901:1 3189:1 
0.3819347174628368 58:1 80:1 81:1 82:1 114:1 
1 6:1 12:1 739:1 1314:1 3190:1 
1 6:1 12:1 361:1 1314:1 3190:1 
1 7:1 32:1 58:1 78:1 114:1 
1 7:1 58:1 80:1 81:1 123:1 
1 72:1 1272:1 1608:1 3193:1 3194:1 
1 1272:1 1608:1 3193:1 3194:1 3195:1 
1 14:1 121:1 330:1 790:1 2681:1 
0.0083013395928658203 1:1 56:1 72:1 111:1 234:1 
0.07729696851268926 58:1 80:1 81:1 82:1 114:1 
1 114:1 317:1 478:1 3187:1 3196:1 
0.15861198876509836 21:1 161:1 236:1 482:1 657:1 
1 32:1 115:1 2750:1 3197:1 3198:1 
1 32:1 115:1 2750:1 3198:1 3199:1 
0.58708939776397118 1:1 32:1 199:1 3200:1 3201:1 
1 46:1 199:1 1298:1 1591:1 3207:1 
1 199:1 282:1 849:1 2436:1 3208:1 
0.12843103752517282 49:1 199:1 3210:1 3211:1 3212:1 
1 5:1 49:1 165:1 3213:1 
1 25:1 1363:1 3214:1 3215:1 3216:1 
1 3217:1 3218:1 3219:1 3220:1 3221:1 
1 38:1 2787:1 3220:1 3221:1 3222:1 
1 7:1 38:1 2787:1 3222:1 
1 32:1 330:1 414:1 2794:1 3223:1 
1 295:1 330:1 3224:1 3225:1 3226:1 
1 6:1 7:1 3227:1 3228:1 3229:1 
1 6:1 25:1 3227:1 3228:1 3229:1 
1 7:1 17:1 3230:1 3231:1 
0.041162055277306125 127:1 634:1 1071:1 2588:1 3235:1 
1 30:1 32:1 791:1 3236:1 3237:1 
1 30:1 791:1 3237:1 3238:1 
1 7:1 11:1 12:1 72:1 73:1 
1 11:1 12:1 72:1 73:1 74:1 
1 138:1 1807:1 3239:1 3240:1 3241:1 
1 75:1 132:1 802:1 1047:1 1632:1 
1 1:1 32:1 492:1 657:1 3243:1 
0.92647642241132111 1:1 32:1 657:1 3024:1 3243:1 
1 38:1 196:1 521:1 3244:1 3245:1 
1 1:1 38:1 343:1 2675:1 3247:1 
1 1:1 10:1 32:1 72:1 187:1 
1 1:1 10:1 370:1 2235:1 3255:1 
1 58:1 72:1 81:1 114:1 
1 72:1 81:1 82:1 114:1 3256:1 
1 7:1 1778:1 2172:1 2233:1 
1 28:1 84:1 2947:1 3261:1 3262:1 
1 25:1 75:1 77:1 3263:1 3264:1 
1 25:1 77:1 1489:1 3263:1 3264:1 
0.89625659783632217 7:1 10:1 330:1 364:1 1083:1 
0.12209645310758825 7:1 230:1 1298:1 1996:1 
1 32:1 230:1 1298:1 1996:1 2405:1 
1 402:1 635:1 2081:1 2787:1 3265:1 
1 6:1 103:1 402:1 635:1 2081:1 
1 6:1 355:1 436:1 3266:1 3267:1 
1 6:1 103:1 355:1 3266:1 3267:1 
1 10:1 364:1 365:1 3268:1 
1 32:1 161:1 1301:1 1365:1 3269:1 
1 75:1 1416:1 1417:1 1568:1 3270:1 
1 25:1 75:1 1417:1 1568:1 3270:1 
1 75:1 147:1 3271:1 3272:1 3273:1 
0.073237641088784666 1:1 1019:1 2632:1 3271:1 3272:1 
1 1:1 841:1 1019:1 3271:1 3272:1 
1 1:1 75:1 114:1 2376:1 3274:1 
1 1:1 114:1 2376:1 3274:1 3275:1 
1 1:1 423:1 2787:1 3271:1 3276:1 
1 1:1 75:1 423:1 3271:1 3276:1 
1 6:1 28:1 355:1 902:1 3124:1 
1 7:1 110:1 3277:1 3278:1 
1 7:1 38:1 93:1 3031:1 3280:1 
0.0067386252964464991 1:1 2:1 93:1 1892:1 3031:1 
1 2:1 82:1 167:1 190:1 3281:1 
0.90272536732549502 7:1 115:1 1473:1 3282:1 
0.52611098070318696 7:1 449:1 3283:1 3284:1 3285:1 
1 7:1 3283:1 3284:1 3285:1 
1 5:1 6:1 27:1 433:1 1569:1 
1 1:1 127:1 1546:1 3286:1 3287:1 
1 1:1 127:1 446:1 450:1 2376:1 
1 10:1 25:1 316:1 1631:1 3288:1 
1 7:1 23:1 402:1 1512:1 3289:1 
1 6:1 591:1 992:1 1473:1 3290:1 
1 7:1 16:1 358:1 1473:1 
1 62:1 203:1 243:1 460:1 1623:1 
0.53476715834019262 7:1 10:1 11:1 24:1 3291:1 
0.81706833897408893 10:1 11:1 24:1 3291:1 3292:1 
1 7:1 10:1 11:1 24:1 25:1 
1 58:1 276:1 2448:1 3294:1 3295:1 
1 58:1 2448:1 3178:1 3294:1 3295:1 
1 7:1 49:1 161:1 358:1 815:1 
1 49:1 161:1 358:1 815:1 1945:1 
1 26:1 32:1 183:1 379:1 3296:1 
1 7:1 10:1 17:1 1161:1 3297:1 
1 7:1 10:1 17:1 1161:1 
0.88535345649029562 6:1 30:1 167:1 327:1 1274:1 
1 6:1 161:1 167:1 327:1 1274:1 
1 1:1 25:1 184:1 564:1 3300:1 
1 1:1 25:1 184:1 1471:1 
1 840:1 1426:1 3183:1 3302:1 3303:1 
1 176:1 840:1 3183:1 3302:1 3303:1 
1 7:1 206:1 459:1 511:1 2398:1 
0.68657112345322258 58:1 80:1 81:1 114:1 123:1 
1 32:1 58:1 78:1 114:1 1907:1 
0.25029100082903005 1:1 301:1 318:1 840:1 2643:1 
1 1:1 301:1 318:1 2643:1 3304:1 
1 3:1 25:1 184:1 212:1 253:1 
1 10:1 197:1 212:1 551:1 3305:1 
1 25:1 316:1 367:1 368:1 
1 121:1 365:1 460:1 479:1 498:1 
1 10:1 11:1 24:1 75:1 3293:1 
0.12252574441272385 10:1 11:1 24:1 3293:1 3308:1 
1 12:1 25:1 72:1 1560:1 2584:1 
1 7:1 69:1 93:1 110:1 1560:1 
0.88178982099148395 1:1 13:1 317:1 389:1 2756:1 
1 1:1 10:1 25:1 57:1 3309:1 
0.82943334588728379 1:1 7:1 10:1 25:1 57:1 
1 10:1 25:1 91:1 450:1 1230:1 
1 10:1 32:1 91:1 450:1 1230:1 
1 72:1 78:1 538:1 1569:1 3310:1 
1 72:1 183:1 538:1 1569:1 3310:1 
1 7:1 13:1 25:1 3311:1 
1 7:1 511:1 512:1 551:1 3312:1 
1 22:1 211:1 402:1 3314:1 3315:1 
1 22:1 211:1 436:1 3314:1 3315:1 
1 7:1 86:1 3316:1 3317:1 
1 86:1 422:1 3316:1 3317:1 3318:1 
1 62:1 104:1 206:1 436:1 1068:1 
1 25:1 62:1 103:1 1068:1 3317:1 
1 1:1 25:1 36:1 57:1 1708:1 
1 10:1 316:1 381:1 2760:1 3319:1 
1 38:1 152:1 485:1 2012:1 2636:1 
1 6:1 152:1 216:1 485:1 2012:1 
1 7:1 9:1 10:1 3320:1 3321:1 
1 7:1 9:1 10:1 3321:1 
1 77:1 135:1 167:1 433:1 891:1 
1 1:1 25:1 301:1 317:1 1174:1 
1 1:1 198:1 301:1 317:1 1174:1 
1 32:1 894:1 895:1 2758:1 3322:1 
1 32:1 894:1 895:1 3322:1 3323:1 
1 597:1 895:1 3322:1 3323:1 
1 147:1 597:1 3322:1 3323:1 
1 32:1 138:1 293:1 3324:1 3325:1 
1 32:1 138:1 1945:1 3324:1 3325:1 
1 32:1 1344:1 1886:1 3327:1 3328:1 
1 32:1 1886:1 3327:1 3328:1 3329:1 
1 7:1 10:1 852:1 1840:1 3330:1 
1 10:1 852:1 1840:1 3330:1 3331:1 
1 7:1 245:1 246:1 3332:1 
1 1:1 7:1 10:1 25:1 253:1 
0.3127514511304334 167:1 351:1 3333:1 3334:1 3335:1 
1 28:1 199:1 485:1 1673:1 1984:1 
1 7:1 199:1 1984:1 3336:1 
1 1:1 27:1 341:1 961:1 3337:1 
1 23:1 175:1 342:1 3338:1 3339:1 
1 10:1 3340:1 3341:1 3342:1 3343:1 
1 1369:1 3340:1 3341:1 3342:1 3343:1 
0.65745454984894047 341:1 634:1 1279:1 3344:1 3345:1 
0.50365126771805069 7:1 341:1 634:1 1279:1 3345:1 
1 58:1 114:1 1209:1 3346:1 3347:1 
0.88784941812971607 7:1 25:1 72:1 365:1 3349:1 
0.01457138524881005 7:1 14:1 121:1 1901:1 2814:1 
1 32:1 3265:1 3350:1 3351:1 3352:1 
1 72:1 111:1 156:1 246:1 3353:1 
1 72:1 111:1 156:1 161:1 3353:1 
1 7:1 72:1 732:1 3354:1 3355:1 
1 72:1 434:1 732:1 3354:1 3355:1 
1 7:1 282:1 2361:1 3356:1 3357:1 
1 6:1 22:1 103:1 402:1 3360:1 
1 7:1 113:1 1314:1 1512:1 3363:1 
1 7:1 113:1 1314:1 1512:1 
1 28:1 32:1 230:1 3364:1 3365:1 
1 28:1 230:1 2762:1 3364:1 3365:1 
1 5:1 32:1 1161:1 1314:1 3366:1 
1 5:1 1161:1 1314:1 3366:1 3367:1 
1 1:1 252:1 2663:1 2762:1 3368:1 
1 7:1 992:1 1283:1 3369:1 
1 7:1 853:1 3135:1 
1 7:1 11:1 12:1 72:1 260:1 
1 3:1 30:1 94:1 3373:1 3374:1 
1 3:1 30:1 94:1 1047:1 3374:1 
0.12384688089972036 10:1 17:1 52:1 281:1 323:1 
1 1:1 27:1 156:1 2886:1 
1 7:1 13:1 201:1 456:1 1335:1 
1 1:1 10:1 206:1 234:1 
1 1:1 77:1 111:1 234:1 
1 32:1 494:1 1068:1 1311:1 1901:1 
1 1:1 10:1 76:1 77:1 494:1 
1 1:1 10:1 45:1 161:1 2361:1 
1 370:1 492:1 598:1 1054:1 3148:1 
1 206:1 598:1 1054:1 3148:1 3378:1 
1 25:1 253:1 833:1 1938:1 3379:1 
1 7:1 25:1 253:1 1087:1 
1 7:1 316:1 804:1 1337:1 3380:1 
1 7:1 804:1 1337:1 3380:1 
1 25:1 127:1 316:1 368:1 1159:1 
1 7:1 30:1 62:1 86:1 1067:1 
0.36374353808081239 30:1 62:1 86:1 1067:1 3381:1 
1 62:1 86:1 165:1 3381:1 
1 62:1 86:1 165:1 703:1 3381:1 
1 25:1 129:1 317:1 3382:1 3383:1 
1 1:1 32:1 72:1 76:1 77:1 
0.89305404641003172 62:1 3385:1 3386:1 3387:1 3388:1 
1 12:1 25:1 446:1 450:1 3389:1 
1 12:1 136:1 446:1 450:1 3000:1 
1 28:1 33:1 34:1 286:1 1975:1 
0.20447962054507357 21:1 33:1 34:1 286:1 1975:1 
0.37050824126857484 21:1 58:1 1975:1 3390:1 
1 86:1 268:1 461:1 638:1 1975:1 
1 7:1 316:1 365:1 877:1 3392:1 
1 7:1 12:1 446:1 887:1 1102:1 
1 7:1 12:1 446:1 887:1 
0.94387402608953153 49:1 243:1 930:1 3397:1 
0.73633979118189741 1:1 5:1 1817:1 3397:1 3398:1 
1 7:1 252:1 3401:1 3402:1 
1 31:1 252:1 492:1 3401:1 3402:1 
1 18:1 25:1 205:1 3403:1 3404:1 
1 25:1 161:1 205:1 3403:1 3404:1 
1 6:1 7:1 1417:1 3405:1 
1 11:1 12:1 19:1 69:1 206:1 
1 10:1 11:1 12:1 13:1 14:1 
1 11:1 12:1 19:1 25:1 3406:1 
1 11:1 12:1 19:1 25:1 26:1 
1 6:1 187:1 3407:1 3408:1 3409:1 
1 6:1 3407:1 3408:1 3409:1 3410:1 
1 7:1 25:1 773:1 774:1 
1 7:1 25:1 773:1 774:1 
1 10:1 11:1 12:1 13:1 14:1 
1 7:1 10:1 11:1 12:1 75:1 
1 7:1 10:1 11:1 12:1 
1 10:1 127:1 341:1 342:1 3411:1 
1 127:1 341:1 342:1 399:1 3411:1 
1 25:1 161:1 1369:1 3412:1 3413:1 
1 25:1 161:1 1369:1 2758:1 3413:1 
1 32:1 110:1 127:1 1818:1 3414:1 
1 77:1 110:1 127:1 1818:1 3414:1 
1 1:1 32:1 127:1 3415:1 3416:1 
1 10:1 56:1 117:1 118:1 3417:1 
1 7:1 32:1 117:1 118:1 
1 13:1 25:1 72:1 110:1 3419:1 
1 1:1 6:1 38:1 2060:1 2653:1 
0.84941095630811525 10:1 36:1 253:1 696:1 998:1 
1 10:1 36:1 253:1 696:1 3420:1 
0.060882013111239176 1:1 6:1 103:1 341:1 2787:1 
1 379:1 461:1 1225:1 1410:1 3421:1 
1 7:1 379:1 461:1 1225:1 
0.68575345984005598 25:1 104:1 1095:1 3422:1 3423:1 
1 25:1 104:1 2077:1 3422:1 3423:1 
1 281:1 351:1 353:1 461:1 3424:1 
1 1:1 7:1 3425:1 3426:1 
0.93804177136418299 7:1 10:1 117:1 118:1 3417:1 
1 10:1 56:1 117:1 118:1 3417:1 
1 2:1 7:1 28:1 3427:1 
1 6:1 212:1 341:1 3428:1 3429:1 
1 7:1 10:1 78:1 79:1 3430:1 
1 7:1 10:1 79:1 3430:1 
1 2:1 7:1 17:1 206:1 3432:1 
0.34743530386975596 58:1 75:1 760:1 2861:1 3433:1 
0.31255260363140186 6:1 62:1 75:1 3434:1 3435:1 
1 30:1 108:1 628:1 3436:1 3437:1 
1 30:1 108:1 1047:1 3436:1 3437:1 
0.16468754488498336 25:1 58:1 253:1 1073:1 2524:1 
1 25:1 58:1 812:1 1073:1 2524:1 
0.56922812993380911 1:1 179:1 200:1 1670:1 1718:1 
0.93744200947963308 1:1 179:1 200:1 1158:1 1718:1 
1 1:1 32:1 75:1 200:1 3438:1 
1 1:1 156:1 161:1 369:1 2166:1 
1 3:1 822:1 1449:1 3441:1 3442:1 
1 3:1 7:1 1449:1 3442:1 
1 25:1 316:1 2258:1 3443:1 
1 7:1 77:1 127:1 3412:1 3444:1 
1 25:1 77:1 127:1 3412:1 3444:1 
1 72:1 75:1 111:1 234:1 434:1 
1 25:1 145:1 330:1 345:1 434:1 
1 25:1 130:1 145:1 330:1 345:1 
1 1:1 156:1 161:1 2907:1 3446:1 
1 56:1 111:1 316:1 317:1 2077:1 
1 7:1 25:1 244:1 245:1 3447:1 
0.0069097072658849366 316:1 317:1 330:1 882:1 3307:1 
1 7:1 75:1 125:1 126:1 3449:1 
1 72:1 156:1 161:1 1817:1 3451:1 
1 7:1 38:1 62:1 3456:1 
1 1:1 75:1 1844:1 3448:1 3458:1 
0.99354881193491507 1:1 1844:1 3448:1 3458:1 3459:1 
